{"learner":{"attributes":{"scikit_learn":"{\"_estimator_type\": \"classifier\"}"},"feature_names":[],"feature_types":[],"gradient_booster":{"model":{"gbtree_model_param":{"num_parallel_tree":"1","num_trees":"200"},"iteration_indptr":[0,1,2,3,4,5,6,7,8,9,10,11,12,13,14,15,16,17,18,19,20,21,22,23,24,25,26,27,28,29,30,31,32,33,34,35,36,37,38,39,40,41,42,43,44,45,46,47,48,49,50,51,52,53,54,55,56,57,58,59,60,61,62,63,64,65,66,67,68,69,70,71,72,73,74,75,76,77,78,79,80,81,82,83,84,85,86,87,88,89,90,91,92,93,94,95,96,97,98,99,100,101,102,103,104,105,106,107,108,109,110,111,112,113,114,115,116,117,118,119,120,121,122,123,124,125,126,127,128,129,130,131,132,133,134,135,136,137,138,139,140,141,142,143,144,145,146,147,148,149,150,151,152,153,154,155,156,157,158,159,160,161,162,163,164,165,166,167,168,169,170,171,172,173,174,175,176,177,178,179,180,181,182,183,184,185,186,187,188,189,190,191,192,193,194,195,196,197,198,199,200],"tree_info":[0,0,0,0,0,0,0,0,0,0,0,0,0,0,0,0,0,0,0,0,0,0,0,0,0,0,0,0,0,0,0,0,0,0,0,0,0,0,0,0,0,0,0,0,0,0,0,0,0,0,0,0,0,0,0,0,0,0,0,0,0,0,0,0,0,0,0,0,0,0,0,0,0,0,0,0,0,0,0,0,0,0,0,0,0,0,0,0,0,0,0,0,0,0,0,0,0,0,0,0,0,0,0,0,0,0,0,0,0,0,0,0,0,0,0,0,0,0,0,0,0,0,0,0,0,0,0,0,0,0,0,0,0,0,0,0,0,0,0,0,0,0,0,0,0,0,0,0,0,0,0,0,0,0,0,0,0,0,0,0,0,0,0,0,0,0,0,0,0,0,0,0,0,0,0,0,0,0,0,0,0,0,0,0,0,0,0,0,0,0,0,0,0,0,0,0,0,0,0,0],"trees":[{"base_weights":[-2.913255E-1,3.1866882E0,-7.7118504E-1,3.9111588E0,2.354382E0,-9.719274E-1,-3.1827122E-1,4.0075812E-1,1.5767409E-1,3.7950704E-1,1.5411697E-1,-7.31877E-2,-1.09016694E-1,1.5101874E-3,-8.191847E-2],"categories":[],"categories_nodes":[],"categories_segments":[],"categories_sizes":[],"default_left":[0,0,0,0,0,0,0,0,0,0,0,0,0,0,0],"id":0,"left_children":[1,3,5,7,9,11,13,-1,-1,-1,-1,-1,-1,-1,-1],"loss_changes":[8.6314294E2,2.861029E1,4.096634E1,8.8842773E-1,3.1290237E1,8.116638E0,2.3542782E1,0E0,0E0,0E0,0E0,0E0,0E0,0E0,0E0],"parents":[2147483647,0,0,1,1,2,2,3,3,4,4,5,5,6,6],"right_children":[2,4,6,8,10,12,14,-1,-1,-1,-1,-1,-1,-1,-1],"split_conditions":[4.8E1,1E0,3.4782608E1,1E0,1E0,6.8E1,8.3E1,4.0075812E-1,1.5767409E-1,3.7950704E-1,1.5411697E-1,-7.31877E-2,-1.09016694E-1,1.5101874E-3,-8.191847E-2],"split_indices":[39,26,20,32,7,39,39,0,0,0,0,0,0,0,0],"split_type":[0,0,0,0,0,0,0,0,0,0,0,0,0,0,0],"sum_hessian":[5.147023E2,6.17195E1,4.5298276E2,3.1019646E1,3.0699856E1,3.1307455E2,1.3990819E2,2.9100904E1,1.918741E0,9.7536E0,2.0946255E1,1.0569064E2,2.0738391E2,8.4584496E1,5.5323696E1],"tree_param":{"num_deleted":"0","num_feature":"44","num_nodes":"15","size_leaf_vector":"1"}},{"base_weights":[-2.7142093E-1,2.4207387E0,-7.302852E-1,1.966423E0,3.1888205E-1,-9.319952E-1,-2.932863E-1,2.9073322E-1,1.3723248E-1,-6.9094054E-2,-1.0534542E-1,3.1047493E-2,-5.3813137E-2],"categories":[],"categories_nodes":[],"categories_segments":[],"categories_sizes":[],"default_left":[0,0,0,0,0,0,0,0,0,0,0,0,0],"id":1,"left_children":[1,3,5,7,-1,9,11,-1,-1,-1,-1,-1,-1],"loss_changes":[6.270483E2,1.953128E1,3.791382E1,2.3439316E1,0E0,7.9369507E0,2.0607887E1,0E0,0E0,0E0,0E0,0E0,0E0],"parents":[2147483647,0,0,1,1,2,2,3,3,5,5,6,6],"right_children":[2,4,6,8,-1,10,12,-1,-1,-1,-1,-1,-1],"split_conditions":[4.8E1,1E0,3.4782608E1,1E0,3.1888205E-1,6.8E1,6.4E1,2.9073322E-1,1.3723248E-1,-6.9094054E-2,-1.0534542E-1,3.1047493E-2,-5.3813137E-2],"split_indices":[39,29,20,7,0,39,39,0,0,0,0,0,0],"split_type":[0,0,0,0,0,0,0,0,0,0,0,0,0],"sum_hessian":[5.0516232E2,7.294108E1,4.3222122E2,4.8068832E1,2.4872246E1,2.949469E2,1.3727434E2,1.7097227E1,3.0971603E1,1.01062004E2,1.9388489E2,3.952989E1,9.7744446E1],"tree_param":{"num_deleted":"0","num_feature":"44","num_nodes":"13","size_leaf_vector":"1"}},{"base_weights":[-2.530024E-1,1.9663086E0,-6.91171E-1,1.5779513E0,2.6076967E-1,-8.939911E-1,-2.6967156E-1,1.17783345E-1,2.3314014E-1,-6.516322E-2,-1.0191808E-1,2.7258617E-3,-7.509378E-2],"categories":[],"categories_nodes":[],"categories_segments":[],"categories_sizes":[],"default_left":[0,0,0,0,0,0,0,0,0,0,0,0,0],"id":2,"left_children":[1,3,5,7,-1,9,11,-1,-1,-1,-1,-1,-1],"loss_changes":[4.8209015E2,1.6253235E1,3.5116013E1,1.3371765E1,0E0,7.7947693E0,1.94256E1,0E0,0E0,0E0,0E0,0E0,0E0],"parents":[2147483647,0,0,1,1,2,2,3,3,5,5,6,6],"right_children":[2,4,6,8,-1,10,12,-1,-1,-1,-1,-1,-1],"split_conditions":[4.8E1,5.925926E1,3.4782608E1,1E0,2.6076967E-1,6.8E1,8.3E1,1.17783345E-1,2.3314014E-1,-6.516322E-2,-1.0191808E-1,2.7258617E-3,-7.509378E-2],"split_indices":[39,20,20,29,0,39,39,0,0,0,0,0,0],"split_type":[0,0,0,0,0,0,0,0,0,0,0,0,0],"sum_hessian":[4.933594E2,8.077068E1,4.125887E2,5.2464123E1,2.8306562E1,2.777959E2,1.3479282E2,3.5940994E1,1.6523129E1,9.6732796E1,1.8106311E2,8.394441E1,5.0848408E1],"tree_param":{"num_deleted":"0","num_feature":"44","num_nodes":"13","size_leaf_vector":"1"}},{"base_weights":[-2.3606059E-1,1.660937E0,-6.53793E-1,1.3457088E0,2.1710422E0,-2.1889909E-1,-8.49761E-1,2.0078018E-1,1.0016655E-1,2.2293197E-1,9.0056114E-2,3.2400724E-2,-5.703794E-2,-7.23809E-2,-1.02878444E-1],"categories":[],"categories_nodes":[],"categories_segments":[],"categories_sizes":[],"default_left":[0,0,0,0,0,0,0,0,0,0,0,0,0,0,0],"id":3,"left_children":[1,3,5,7,9,11,13,-1,-1,-1,-1,-1,-1,-1,-1],"loss_changes":[3.8249292E2,1.1090912E1,3.3492126E1,1.0856628E1,3.3596802E-1,2.3865585E1,5.3900146E0,0E0,0E0,0E0,0E0,0E0,0E0,0E0,0E0],"parents":[2147483647,0,0,1,1,2,2,3,3,4,4,5,5,6,6],"right_children":[2,4,6,8,10,12,14,-1,-1,-1,-1,-1,-1,-1,-1],"split_conditions":[4.8E1,5.925926E1,1E0,1E0,1E0,6.9E1,8.3E1,2.0078018E-1,1.0016655E-1,2.2293197E-1,9.0056114E-2,3.2400724E-2,-5.703794E-2,-7.23809E-2,-1.02878444E-1],"split_indices":[39,20,26,7,13,39,39,0,0,0,0,0,0,0,0],"split_type":[0,0,0,0,0,0,0,0,0,0,0,0,0,0,0],"sum_hessian":[4.8030875E2,8.614279E1,3.9416595E2,5.548994E1,3.0652851E1,1.2309951E2,2.7106644E2,1.7320902E1,3.816904E1,2.8586859E1,2.0659916E0,4.8406944E1,7.4692566E1,1.6207884E2,1.08987595E2],"tree_param":{"num_deleted":"0","num_feature":"44","num_nodes":"15","size_leaf_vector":"1"}},{"base_weights":[-2.2005932E-1,1.4409298E0,-6.175846E-1,1.768055E0,1.0537016E0,-8.259785E-1,-2.1322589E-1,1.8413089E-1,7.941787E-2,1.759846E-1,6.3600175E-2,-5.7978716E-2,-9.596038E-2,1.0951028E-3,-7.5998925E-2],"categories":[],"categories_nodes":[],"categories_segments":[],"categories_sizes":[],"default_left":[0,0,0,0,0,0,0,0,0,0,0,0,0,0,0],"id":4,"left_children":[1,3,5,7,9,11,13,-1,-1,-1,-1,-1,-1,-1,-1],"loss_changes":[3.0969318E2,9.615402E0,3.1681976E1,1.9366455E0,1.185017E1,7.639694E0,1.5933625E1,0E0,0E0,0E0,0E0,0E0,0E0,0E0,0E0],"parents":[2147483647,0,0,1,1,2,2,3,3,4,4,5,5,6,6],"right_children":[2,4,6,8,10,12,14,-1,-1,-1,-1,-1,-1,-1,-1],"split_conditions":[4.8E1,1E0,3.4782608E1,4.5E1,1E0,6.8E1,8.8E1,1.8413089E-1,7.941787E-2,1.759846E-1,6.3600175E-2,-5.7978716E-2,-9.596038E-2,1.0951028E-3,-7.5998925E-2],"split_indices":[39,26,20,39,7,39,39,0,0,0,0,0,0,0,0],"split_type":[0,0,0,0,0,0,0,0,0,0,0,0,0,0,0],"sum_hessian":[4.666817E2,8.961529E1,3.7706644E2,4.6644615E1,4.2970676E1,2.4814003E2,1.2892639E2,4.2553116E1,4.0914993E0,1.4776691E1,2.8193983E1,8.917772E1,1.5896231E2,9.213171E1,3.679469E1],"tree_param":{"num_deleted":"0","num_feature":"44","num_nodes":"15","size_leaf_vector":"1"}},{"base_weights":[-2.0540366E-1,1.323684E0,-5.7033503E-1,1.1377634E0,1.9212855E-1,-1.4620976E-1,-7.780494E-1,1.7177562E-1,7.811342E-2,5.1228326E-2,-4.144703E-2,-6.4850934E-2,-9.739937E-2],"categories":[],"categories_nodes":[],"categories_segments":[],"categories_sizes":[],"default_left":[0,0,0,0,0,0,0,0,0,0,0,0,0],"id":5,"left_children":[1,3,5,7,-1,9,11,-1,-1,-1,-1,-1,-1],"loss_changes":[2.5395317E2,7.561142E0,3.221982E1,1.300544E1,0E0,2.1743637E1,5.6158905E0,0E0,0E0,0E0,0E0,0E0,0E0],"parents":[2147483647,0,0,1,1,2,2,3,3,5,5,6,6],"right_children":[2,4,6,8,-1,10,12,-1,-1,-1,-1,-1,-1],"split_conditions":[4.7E1,1E0,1E0,1E0,1.9212855E-1,6.2E1,8.3E1,1.7177562E-1,7.811342E-2,5.1228326E-2,-4.144703E-2,-6.4850934E-2,-9.739937E-2],"split_indices":[39,14,26,7,0,39,39,0,0,0,0,0,0],"split_type":[0,0,0,0,0,0,0,0,0,0,0,0,0],"sum_hessian":[4.5275046E2,8.672779E1,3.6602267E2,6.836314E1,1.8364658E1,1.2088844E2,2.4513423E2,2.4576794E1,4.3786343E1,3.4729378E1,8.6159065E1,1.5016727E2,9.4966965E1],"tree_param":{"num_deleted":"0","num_feature":"44","num_nodes":"13","size_leaf_vector":"1"}},{"base_weights":[-1.914781E-1,1.1375009E0,-5.4949886E-1,8.837191E-1,1.572018E0,-7.6197815E-1,-1.6568582E-1,1.4360999E-1,5.464543E-2,1.6492932E-1,9.331222E-2,-5.124876E-2,-9.0477295E-2,3.5561814E-3,-6.9577195E-2],"categories":[],"categories_nodes":[],"categories_segments":[],"categories_sizes":[],"default_left":[0,0,0,0,0,0,0,0,0,0,0,0,0,0,0],"id":6,"left_children":[1,3,5,7,9,11,13,-1,-1,-1,-1,-1,-1,-1,-1],"loss_changes":[2.1004968E2,8.9472885E0,2.8206215E1,1.066489E1,1.0393524E-1,7.4930573E0,1.3367411E1,0E0,0E0,0E0,0E0,0E0,0E0,0E0,0E0],"parents":[2147483647,0,0,1,1,2,2,3,3,4,4,5,5,6,6],"right_children":[2,4,6,8,10,12,14,-1,-1,-1,-1,-1,-1,-1,-1],"split_conditions":[4.8E1,1E0,3.4782608E1,1E0,1E0,6.8E1,8.8E1,1.4360999E-1,5.464543E-2,1.6492932E-1,9.331222E-2,-5.124876E-2,-9.0477295E-2,3.5561814E-3,-6.9577195E-2],"split_indices":[39,29,20,7,21,39,39,0,0,0,0,0,0,0,0],"split_type":[0,0,0,0,0,0,0,0,0,0,0,0,0,0,0],"sum_hessian":[4.391507E2,9.2735985E1,3.464147E2,6.0458633E1,3.2277355E1,2.2234116E2,1.2407356E2,2.1684746E1,3.8773888E1,2.7383785E1,4.893569E0,8.260426E1,1.397369E2,9.060733E1,3.3466236E1],"tree_param":{"num_deleted":"0","num_feature":"44","num_nodes":"15","size_leaf_vector":"1"}},{"base_weights":[-1.7849682E-1,1.0686342E0,-5.058836E-1,1.3575361E0,7.424796E-1,-1.0843516E-1,-7.149411E-1,1.4055987E-1,4.734727E-2,1.3534483E-1,4.0003207E-2,3.1694718E-2,-4.4585276E-2,-5.8435064E-2,-9.231167E-2],"categories":[],"categories_nodes":[],"categories_segments":[],"categories_sizes":[],"default_left":[0,0,0,0,0,0,0,0,0,0,0,0,0,0,0],"id":7,"left_children":[1,3,5,7,9,11,13,-1,-1,-1,-1,-1,-1,-1,-1],"loss_changes":[1.7477051E2,7.382927E0,2.8062973E1,1.2896576E0,8.671854E0,1.7066233E1,5.4892654E0,0E0,0E0,0E0,0E0,0E0,0E0,0E0,0E0],"parents":[2147483647,0,0,1,1,2,2,3,3,4,4,5,5,6,6],"right_children":[2,4,6,8,10,12,14,-1,-1,-1,-1,-1,-1,-1,-1],"split_conditions":[4.7E1,1E0,1E0,1E0,1E0,6.9E1,8.3E1,1.4055987E-1,4.734727E-2,1.3534483E-1,4.0003207E-2,3.1694718E-2,-4.4585276E-2,-5.8435064E-2,-9.231167E-2],"split_indices":[39,26,26,32,7,39,39,0,0,0,0,0,0,0,0],"split_type":[0,0,0,0,0,0,0,0,0,0,0,0,0,0,0],"sum_hessian":[4.2572647E2,8.804979E1,3.3767667E2,4.501449E1,4.3035297E1,1.16917816E2,2.2075887E2,4.213393E1,2.8805587E0,1.4396999E1,2.8638298E1,5.1744366E1,6.517345E1,1.3799828E2,8.2760574E1],"tree_param":{"num_deleted":"0","num_feature":"44","num_nodes":"15","size_leaf_vector":"1"}},{"base_weights":[-1.6630588E-1,9.326794E-1,-4.8624706E-1,6.946871E-1,1.3526008E0,-7.007456E-1,-1.2570924E-1,4.1430812E-2,1.2673283E-1,1.4031814E-1,4.509559E-2,-4.511813E-2,-8.5219E-2,5.140522E-3,-6.3177995E-2],"categories":[],"categories_nodes":[],"categories_segments":[],"categories_sizes":[],"default_left":[0,0,0,0,0,0,0,0,0,0,0,0,0,0,0],"id":8,"left_children":[1,3,5,7,9,11,13,-1,-1,-1,-1,-1,-1,-1,-1],"loss_changes":[1.4594408E2,8.418861E0,2.4747223E1,9.401291E0,8.6393356E-1,7.21727E0,1.0878848E1,0E0,0E0,0E0,0E0,0E0,0E0,0E0,0E0],"parents":[2147483647,0,0,1,1,2,2,3,3,4,4,5,5,6,6],"right_children":[2,4,6,8,10,12,14,-1,-1,-1,-1,-1,-1,-1,-1],"split_conditions":[4.8E1,5.925926E1,3.4782608E1,1E0,1E0,6.8E1,8.8E1,4.1430812E-2,1.2673283E-1,1.4031814E-1,4.509559E-2,-4.511813E-2,-8.5219E-2,5.140522E-3,-6.3177995E-2],"split_indices":[39,20,20,29,13,39,39,0,0,0,0,0,0,0,0],"split_type":[0,0,0,0,0,0,0,0,0,0,0,0,0,0,0],"sum_hessian":[4.127831E2,9.2642975E1,3.201401E2,6.082466E1,3.1818316E1,2.0013069E2,1.2000943E2,4.1989223E1,1.8835438E1,2.9601482E1,2.2168334E0,7.708388E1,1.2304681E2,8.956272E1,3.0446709E1],"tree_param":{"num_deleted":"0","num_feature":"44","num_nodes":"15","size_leaf_vector":"1"}},{"base_weights":[-1.5484837E-1,8.8740724E-1,-4.4614086E-1,6.719264E-1,1.2593427E0,-7.803936E-2,-6.540027E-1,1.18192606E-1,4.315109E-2,1.3090482E-1,4.201867E-2,4.1742913E-2,-3.0983021E-2,-7.467011E-2,-3.4251362E-2],"categories":[],"categories_nodes":[],"categories_segments":[],"categories_sizes":[],"default_left":[0,0,0,0,0,0,0,0,0,0,0,0,0,0,0],"id":9,"left_children":[1,3,5,7,9,11,13,-1,-1,-1,-1,-1,-1,-1,-1],"loss_changes":[1.2228668E2,6.209152E0,2.4008938E1,6.5871677E0,7.491951E-1,1.3292764E1,5.5431747E0,0E0,0E0,0E0,0E0,0E0,0E0,0E0,0E0],"parents":[2147483647,0,0,1,1,2,2,3,3,4,4,5,5,6,6],"right_children":[2,4,6,8,10,12,14,-1,-1,-1,-1,-1,-1,-1,-1],"split_conditions":[4.7E1,5.925926E1,1E0,1E0,1E0,6.2E1,1E0,1.18192606E-1,4.315109E-2,1.3090482E-1,4.201867E-2,4.1742913E-2,-3.0983021E-2,-7.467011E-2,-3.4251362E-2],"split_indices":[39,20,26,7,13,39,11,0,0,0,0,0,0,0,0],"split_type":[0,0,0,0,0,0,0,0,0,0,0,0,0,0,0],"sum_hessian":[4.0048315E2,8.703219E1,3.1345096E2,5.688336E1,3.014883E1,1.1361904E2,1.9983191E2,1.6969446E1,3.9913914E1,2.7934252E1,2.2145789E0,3.595721E1,7.766183E1,1.529247E2,4.6907215E1],"tree_param":{"num_deleted":"0","num_feature":"44","num_nodes":"15","size_leaf_vector":"1"}},{"base_weights":[-1.437258E-1,8.125279E-1,-4.171652E-1,6.563733E-1,1.3589824E0,-5.151986E-1,3.3347395E-1,1.1638474E-1,3.8034543E-2,1.4235386E-1,4.5723896E-2,-1.9940255E-2,-6.356618E-2,1.0464072E-1,-2.3952574E-2],"categories":[],"categories_nodes":[],"categories_segments":[],"categories_sizes":[],"default_left":[0,0,0,0,0,0,0,0,0,0,0,0,0,0,0],"id":10,"left_children":[1,3,5,7,9,11,13,-1,-1,-1,-1,-1,-1,-1,-1],"loss_changes":[1.0227524E2,6.534153E0,2.2529232E1,9.30945E0,4.2066193E-1,1.0110962E1,1.4835476E1,0E0,0E0,0E0,0E0,0E0,0E0,0E0,0E0],"parents":[2147483647,0,0,1,1,2,2,3,3,4,4,5,5,6,6],"right_children":[2,4,6,8,10,12,14,-1,-1,-1,-1,-1,-1,-1,-1],"split_conditions":[4.7E1,1E0,1.1E1,1E0,1E0,6.1E1,6.9E1,1.1638474E-1,3.8034543E-2,1.4235386E-1,4.5723896E-2,-1.9940255E-2,-6.356618E-2,1.0464072E-1,-2.3952574E-2],"split_indices":[39,14,35,7,32,39,39,0,0,0,0,0,0,0,0],"split_type":[0,0,0,0,0,0,0,0,0,0,0,0,0,0,0],"sum_hessian":[3.8884732E2,8.602723E1,3.028201E2,6.861967E1,1.7407568E1,2.681176E2,3.4702473E1,2.304158E1,4.5578087E1,1.57046175E1,1.7029507E0,7.4767876E1,1.9334975E2,1.5094954E1,1.9607517E1],"tree_param":{"num_deleted":"0","num_feature":"44","num_nodes":"15","size_leaf_vector":"1"}},{"base_weights":[-1.3295083E-1,7.156821E-1,-3.9896843E-1,5.0032896E-1,1.1176528E0,-6.157536E-1,-6.6559084E-2,2.7807204E-2,1.0947057E-1,8.0727175E-2,1.3198327E-1,-3.616025E-2,-7.8150034E-2,8.737902E-3,-5.4895084E-2],"categories":[],"categories_nodes":[],"categories_segments":[],"categories_sizes":[],"default_left":[0,0,0,0,0,0,0,0,0,0,0,0,0,0,0],"id":11,"left_children":[1,3,5,7,9,11,13,-1,-1,-1,-1,-1,-1,-1,-1],"loss_changes":[8.580345E1,7.297867E0,2.0788395E1,7.742284E0,8.7062454E-1,7.0821457E0,8.603951E0,0E0,0E0,0E0,0E0,0E0,0E0,0E0,0E0],"parents":[2147483647,0,0,1,1,2,2,3,3,4,4,5,5,6,6],"right_children":[2,4,6,8,10,12,14,-1,-1,-1,-1,-1,-1,-1,-1],"split_conditions":[4.8E1,1E0,3.4782608E1,6.875E1,1E0,6.8E1,8.8E1,2.7807204E-2,1.0947057E-1,8.0727175E-2,1.3198327E-1,-3.616025E-2,-7.8150034E-2,8.737902E-3,-5.4895084E-2],"split_indices":[39,29,20,20,14,39,39,0,0,0,0,0,0,0,0],"split_type":[0,0,0,0,0,0,0,0,0,0,0,0,0,0,0],"sum_hessian":[3.7781473E2,8.976419E1,2.8805054E2,5.9911625E1,2.985257E1,1.7383159E2,1.1421896E2,4.4674282E1,1.5237341E1,1.3744787E1,1.610778E1,6.987264E1,1.0395895E2,8.720839E1,2.7010578E1],"tree_param":{"num_deleted":"0","num_feature":"44","num_nodes":"15","size_leaf_vector":"1"}},{"base_weights":[-1.2317561E-1,7.079787E-1,-3.5903975E-1,1.1442316E0,5.166589E-1,-2.8605778E-2,-5.62768E-1,1.2069505E-1,-4.376018E-3,1.7642483E-2,9.603687E-2,1.0492019E-2,-7.62319E-2,-6.6513434E-2,-2.2883693E-2],"categories":[],"categories_nodes":[],"categories_segments":[],"categories_sizes":[],"default_left":[0,0,0,0,0,0,0,0,0,0,0,0,0,0,0],"id":12,"left_children":[1,3,5,7,9,11,13,-1,-1,-1,-1,-1,-1,-1,-1],"loss_changes":[7.249529E1,6.2356567E0,1.9352089E1,1.8493996E0,8.689467E0,1.0933566E1,5.929821E0,0E0,0E0,0E0,0E0,0E0,0E0,0E0,0E0],"parents":[2147483647,0,0,1,1,2,2,3,3,4,4,5,5,6,6],"right_children":[2,4,6,8,10,12,14,-1,-1,-1,-1,-1,-1,-1,-1],"split_conditions":[4.6E1,1E0,1E0,1E0,1E0,9.5E1,1E0,1.2069505E-1,-4.376018E-3,1.7642483E-2,9.603687E-2,1.0492019E-2,-7.62319E-2,-6.6513434E-2,-2.2883693E-2],"split_indices":[39,7,26,32,11,39,11,0,0,0,0,0,0,0,0],"split_type":[0,0,0,0,0,0,0,0,0,0,0,0,0,0,0],"sum_hessian":[3.6750275E2,8.079392E1,2.8670883E2,2.3112171E1,5.768175E1,1.0978503E2,1.7692381E2,2.1938015E1,1.1741551E0,3.3438732E1,2.4243017E1,9.3606834E1,1.617819E1,1.346539E2,4.2269905E1],"tree_param":{"num_deleted":"0","num_feature":"44","num_nodes":"15","size_leaf_vector":"1"}},{"base_weights":[-1.1408921E-1,4.6758398E-1,-4.1568854E-1,2.2448523E-1,1.096851E0,-5.0434893E-1,2.0218726E-1,6.0059648E-2,-9.428078E-3,5.1359583E-2,1.2492877E-1,-3.7440088E-2,-7.4920125E-2,8.51632E-2,-1.9325558E-2],"categories":[],"categories_nodes":[],"categories_segments":[],"categories_sizes":[],"default_left":[0,0,0,0,0,0,0,0,0,0,0,0,0,0,0],"id":13,"left_children":[1,3,5,7,9,11,13,-1,-1,-1,-1,-1,-1,-1,-1],"loss_changes":[6.320786E1,1.858769E1,1.3089012E1,1.085487E1,2.3858833E0,6.325203E0,7.9880323E0,0E0,0E0,0E0,0E0,0E0,0E0,0E0,0E0],"parents":[2147483647,0,0,1,1,2,2,3,3,4,4,5,5,6,6],"right_children":[2,4,6,8,10,12,14,-1,-1,-1,-1,-1,-1,-1,-1],"split_conditions":[5.4E1,1E0,1.1E1,4.1E1,1.5E1,1E0,6.9E1,6.0059648E-2,-9.428078E-3,5.1359583E-2,1.2492877E-1,-3.7440088E-2,-7.4920125E-2,8.51632E-2,-1.9325558E-2],"split_indices":[39,29,35,39,20,0,39,0,0,0,0,0,0,0,0],"split_type":[0,0,0,0,0,0,0,0,0,0,0,0,0,0,0],"sum_hessian":[3.581899E2,1.2211843E2,2.360715E2,8.9066826E1,3.3051605E1,2.066085E2,2.9462984E1,4.045268E1,4.8614147E1,7.7536716E0,2.5297934E1,1.3662694E2,6.998157E1,1.07138195E1,1.8749165E1],"tree_param":{"num_deleted":"0","num_feature":"44","num_nodes":"15","size_leaf_vector":"1"}},{"base_weights":[-1.0537901E-1,4.2718694E-1,-3.88181E-1,2.0366202E-1,1.0158074E0,-5.969973E-1,-1.2800643E-1,8.51373E-3,1.1124305E-1,4.6841513E-2,1.1634058E-1,-4.3494258E-2,-8.368706E-2,-1.8849362E-2,1.14600174E-1],"categories":[],"categories_nodes":[],"categories_segments":[],"categories_sizes":[],"default_left":[0,0,0,0,0,0,0,0,0,0,0,0,0,0,0],"id":14,"left_children":[1,3,5,7,9,11,13,-1,-1,-1,-1,-1,-1,-1,-1],"loss_changes":[5.2908554E1,1.5836498E1,1.2378742E1,9.559167E0,2.1462631E0,4.5692368E0,8.180142E0,0E0,0E0,0E0,0E0,0E0,0E0,0E0,0E0],"parents":[2147483647,0,0,1,1,2,2,3,3,4,4,5,5,6,6],"right_children":[2,4,6,8,10,12,14,-1,-1,-1,-1,-1,-1,-1,-1],"split_conditions":[5.4E1,1E0,3.25E1,1.4E1,1.5E1,8.4E1,1E0,8.51373E-3,1.1124305E-1,4.6841513E-2,1.1634058E-1,-4.3494258E-2,-8.368706E-2,-1.8849362E-2,1.14600174E-1],"split_indices":[39,29,20,35,20,39,36,0,0,0,0,0,0,0,0],"split_type":[0,0,0,0,0,0,0,0,0,0,0,0,0,0,0],"sum_hessian":[3.4919244E2,1.2093673E2,2.282557E2,8.862714E1,3.2309593E1,1.2590757E2,1.0234813E2,7.936921E1,9.257924E0,7.748096E0,2.4561495E1,7.6821396E1,4.9086174E1,9.852254E1,3.8255932E0],"tree_param":{"num_deleted":"0","num_feature":"44","num_nodes":"15","size_leaf_vector":"1"}},{"base_weights":[-9.6805E-2,3.896573E-1,-3.616443E-1,1.8472525E-1,9.419861E-1,-5.671028E-1,-1.1565396E-1,-1.617421E-2,4.7239468E-2,1.0474034E-1,2.3012528E-2,-4.0674776E-2,-8.131211E-2,-1.7218027E-2,9.8602995E-2],"categories":[],"categories_nodes":[],"categories_segments":[],"categories_sizes":[],"default_left":[0,0,0,0,0,0,0,0,0,0,0,0,0,0,0],"id":15,"left_children":[1,3,5,7,9,11,13,-1,-1,-1,-1,-1,-1,-1,-1],"loss_changes":[4.425005E1,1.3541166E1,1.1164646E1,9.008886E0,2.2013912E0,4.4356194E0,6.5455256E0,0E0,0E0,0E0,0E0,0E0,0E0,0E0,0E0],"parents":[2147483647,0,0,1,1,2,2,3,3,4,4,5,5,6,6],"right_children":[2,4,6,8,10,12,14,-1,-1,-1,-1,-1,-1,-1,-1],"split_conditions":[5.4E1,1E0,3.25E1,3E0,1E0,8.4E1,1E0,-1.617421E-2,4.7239468E-2,1.0474034E-1,2.3012528E-2,-4.0674776E-2,-8.131211E-2,-1.7218027E-2,9.8602995E-2],"split_indices":[39,29,20,35,21,39,36,0,0,0,0,0,0,0,0],"split_type":[0,0,0,0,0,0,0,0,0,0,0,0,0,0,0],"sum_hessian":[3.4137094E2,1.2016962E2,2.2120132E2,8.86223E1,3.154732E1,1.1981929E2,1.0138203E2,4.0401146E1,4.8221153E1,2.7067604E1,4.479716E0,7.414489E1,4.5674397E1,9.7236626E1,4.145403E0],"tree_param":{"num_deleted":"0","num_feature":"44","num_nodes":"15","size_leaf_vector":"1"}},{"base_weights":[-8.915862E-2,5.2815026E-1,-2.7107686E-1,1.0082487E0,3.3304197E-1,-3.363754E-1,5.40351E-1,1.2265575E-1,4.2386565E-2,-2.101499E-3,6.856515E-2,-2.0016462E-2,-6.38769E-2,7.90759E-2,-8.0491565E-2],"categories":[],"categories_nodes":[],"categories_segments":[],"categories_sizes":[],"default_left":[0,0,0,0,0,0,0,0,0,0,0,0,0,0,0],"id":16,"left_children":[1,3,5,7,9,11,13,-1,-1,-1,-1,-1,-1,-1,-1],"loss_changes":[3.778351E1,6.842373E0,1.3933813E1,2.242157E0,7.003323E0,9.791805E0,7.2776794E0,0E0,0E0,0E0,0E0,0E0,0E0,0E0,0E0],"parents":[2147483647,0,0,1,1,2,2,3,3,4,4,5,5,6,6],"right_children":[2,4,6,8,10,12,14,-1,-1,-1,-1,-1,-1,-1,-1],"split_conditions":[4.6E1,1E0,1.5E1,3.7E1,4E0,8.3E1,9.5E1,1.2265575E-1,4.2386565E-2,-2.101499E-3,6.856515E-2,-2.0016462E-2,-6.38769E-2,7.90759E-2,-8.0491565E-2],"split_indices":[39,7,35,39,35,39,39,0,0,0,0,0,0,0,0],"split_type":[0,0,0,0,0,0,0,0,0,0,0,0,0,0,0],"sum_hessian":[3.3417746E2,7.563149E1,2.5854596E2,2.0650251E1,5.498124E1,2.3983131E2,1.871464E1,1.4233959E1,6.416292E0,2.7903551E1,2.707769E1,1.6649632E2,7.333499E1,1.612527E1,2.589368E0],"tree_param":{"num_deleted":"0","num_feature":"44","num_nodes":"15","size_leaf_vector":"1"}},{"base_weights":[-8.18932E-2,2.3635079E-1,-3.8896856E-1,6.612169E-2,8.0925554E-1,-5.793628E-1,-1.1538881E-1,-7.967443E-3,6.44665E-2,1.1391675E-1,3.9710462E-2,-4.1194104E-2,-7.713856E-2,-1.9988185E-2,1.00096874E-1],"categories":[],"categories_nodes":[],"categories_segments":[],"categories_sizes":[],"default_left":[0,0,0,0,0,0,0,0,0,0,0,0,0,0,0],"id":17,"left_children":[1,3,5,7,9,11,13,-1,-1,-1,-1,-1,-1,-1,-1],"loss_changes":[3.2145386E1,1.5715447E1,8.647753E0,1.0657601E1,4.5717907E0,2.845745E0,6.7936754E0,0E0,0E0,0E0,0E0,0E0,0E0,0E0,0E0],"parents":[2147483647,0,0,1,1,2,2,3,3,4,4,5,5,6,6],"right_children":[2,4,6,8,10,12,14,-1,-1,-1,-1,-1,-1,-1,-1],"split_conditions":[6.2E1,1E0,3.75E1,9E0,1E0,8.4E1,1E0,-7.967443E-3,6.44665E-2,1.1391675E-1,3.9710462E-2,-4.1194104E-2,-7.713856E-2,-1.9988185E-2,1.00096874E-1],"split_indices":[39,29,20,35,26,39,36,0,0,0,0,0,0,0,0],"split_type":[0,0,0,0,0,0,0,0,0,0,0,0,0,0,0],"sum_hessian":[3.2699683E2,1.6069131E2,1.663055E2,1.2474179E2,3.5949528E1,9.7402084E1,6.890342E1,1.00322296E2,2.4419493E1,1.8987091E1,1.6962437E1,5.371449E1,4.368759E1,6.481849E1,4.0849237E0],"tree_param":{"num_deleted":"0","num_feature":"44","num_nodes":"15","size_leaf_vector":"1"}},{"base_weights":[-7.5023055E-2,4.5579332E-1,-2.3998202E-1,9.020491E-1,2.7138042E-1,-4.3384528E-1,1.5221679E-3,1.17081776E-1,3.6722448E-2,-1.4252705E-3,6.922098E-2,-5.6444746E-2,-7.2373324E-3,-5.542264E-2,1.0417743E-2],"categories":[],"categories_nodes":[],"categories_segments":[],"categories_sizes":[],"default_left":[0,0,0,0,0,0,0,0,0,0,0,0,0,0,0],"id":18,"left_children":[1,3,5,7,9,11,13,-1,-1,-1,-1,-1,-1,-1,-1],"loss_changes":[2.8299416E1,6.0650015E0,1.1530613E1,2.730894E0,6.703143E0,6.4084454E0,6.370729E0,0E0,0E0,0E0,0E0,0E0,0E0,0E0,0E0],"parents":[2147483647,0,0,1,1,2,2,3,3,4,4,5,5,6,6],"right_children":[2,4,6,8,10,12,14,-1,-1,-1,-1,-1,-1,-1,-1],"split_conditions":[4.7E1,1E0,3.4782608E1,3.7E1,1E0,1E0,3E0,1.17081776E-1,3.6722448E-2,-1.4252705E-3,6.922098E-2,-5.6444746E-2,-7.2373324E-3,-5.542264E-2,1.0417743E-2],"split_indices":[39,7,20,39,11,11,34,0,0,0,0,0,0,0,0],"split_type":[0,0,0,0,0,0,0,0,0,0,0,0,0,0,0],"sum_hessian":[3.209403E2,7.567262E1,2.4526767E2,2.0989422E1,5.46832E1,1.356115E2,1.0965617E2,1.3177895E1,7.8115277E0,3.3149494E1,2.1533709E1,9.920615E1,3.6405354E1,1.6411222E1,9.324496E1],"tree_param":{"num_deleted":"0","num_feature":"44","num_nodes":"15","size_leaf_vector":"1"}},{"base_weights":[-6.8775E-2,2.1033859E-1,-3.4674084E-1,5.752296E-2,7.326632E-1,-2.0660317E-1,-6.9478786E-1,-7.0628896E-3,5.586971E-2,1.0474818E-1,3.4967143E-2,-1.110963E-2,-9.2200294E-2,-4.7774173E-2,-7.795439E-2],"categories":[],"categories_nodes":[],"categories_segments":[],"categories_sizes":[],"default_left":[0,0,0,0,0,0,0,0,0,0,0,0,0,0,0],"id":19,"left_children":[1,3,5,7,9,11,13,-1,-1,-1,-1,-1,-1,-1,-1],"loss_changes":[2.456909E1,1.258254E1,7.5906944E0,7.96825E0,3.9399948E0,7.719159E0,4.5716476E-1,0E0,0E0,0E0,0E0,0E0,0E0,0E0,0E0],"parents":[2147483647,0,0,1,1,2,2,3,3,4,4,5,5,6,6],"right_children":[2,4,6,8,10,12,14,-1,-1,-1,-1,-1,-1,-1,-1],"split_conditions":[6.2E1,1E0,1E0,9E0,1E0,1.01E2,1E0,-7.0628896E-3,5.586971E-2,1.0474818E-1,3.4967143E-2,-1.110963E-2,-9.2200294E-2,-4.7774173E-2,-7.795439E-2],"split_indices":[39,29,0,35,26,39,22,0,0,0,0,0,0,0,0],"split_type":[0,0,0,0,0,0,0,0,0,0,0,0,0,0,0],"sum_hessian":[3.1473706E2,1.571657E2,1.5757137E2,1.2245065E2,3.4715054E1,1.1347527E2,4.409609E1,9.819973E1,2.4250917E1,1.8101036E1,1.6614016E1,1.01129616E2,1.2345654E1,1.4247434E1,2.9848654E1],"tree_param":{"num_deleted":"0","num_feature":"44","num_nodes":"15","size_leaf_vector":"1"}},{"base_weights":[-6.340491E-2,5.5472046E-1,-1.7826912E-1,1.1229515E0,3.3589137E-1,-5.1958684E-2,-5.3286755E-1,3.713249E-2,1.1860317E-1,-3.2793887E-2,5.4948967E-2,5.9094577E-4,-9.039279E-2,-2.6471872E-2,-6.801958E-2],"categories":[],"categories_nodes":[],"categories_segments":[],"categories_sizes":[],"default_left":[0,0,0,0,0,0,0,0,0,0,0,0,0,0,0],"id":20,"left_children":[1,3,5,7,9,11,13,-1,-1,-1,-1,-1,-1,-1,-1],"loss_changes":[2.2161942E1,5.708152E0,1.1743262E1,1.8449211E-1,5.392379E0,9.6137E0,2.5425987E0,0E0,0E0,0E0,0E0,0E0,0E0,0E0,0E0],"parents":[2147483647,0,0,1,1,2,2,3,3,4,4,5,5,6,6],"right_children":[2,4,6,8,10,12,14,-1,-1,-1,-1,-1,-1,-1,-1],"split_conditions":[3.7E1,1E0,1E0,1E0,1.3E1,1.01E2,6.1E1,3.713249E-2,1.1860317E-1,-3.2793887E-2,5.4948967E-2,5.9094577E-4,-9.039279E-2,-2.6471872E-2,-6.801958E-2],"split_indices":[39,7,0,33,39,39,39,0,0,0,0,0,0,0,0],"split_type":[0,0,0,0,0,0,0,0,0,0,0,0,0,0,0],"sum_hessian":[3.0974512E2,4.7938976E1,2.6180612E2,1.2179906E1,3.575907E1,1.938883E2,6.791783E1,1.4762546E0,1.0703651E1,8.574758E0,2.7184315E1,1.8248637E2,1.1401923E1,2.5075409E1,4.2842422E1],"tree_param":{"num_deleted":"0","num_feature":"44","num_nodes":"15","size_leaf_vector":"1"}},{"base_weights":[-5.8217008E-2,5.146627E-1,-1.6392724E-1,1.0856974E0,3.0558002E-1,-4.4313107E-2,-5.1320636E-1,3.537136E-2,1.1497456E-1,5.380611E-3,8.321359E-2,-2.1057071E-2,3.535818E-2,-6.8260655E-2,-2.3588981E-2],"categories":[],"categories_nodes":[],"categories_segments":[],"categories_sizes":[],"default_left":[0,0,0,0,0,0,0,0,0,0,0,0,0,0,0],"id":21,"left_children":[1,3,5,7,9,11,13,-1,-1,-1,-1,-1,-1,-1,-1],"loss_changes":[1.8618694E1,5.3893557E0,1.0803569E1,1.7705536E-1,4.7897882E0,1.2916356E1,2.9399815E0,0E0,0E0,0E0,0E0,0E0,0E0,0E0,0E0],"parents":[2147483647,0,0,1,1,2,2,3,3,4,4,5,5,6,6],"right_children":[2,4,6,8,10,12,14,-1,-1,-1,-1,-1,-1,-1,-1],"split_conditions":[3.7E1,1E0,8.3E1,1E0,2.8E1,1E0,4.117647E1,3.537136E-2,1.1497456E-1,5.380611E-3,8.321359E-2,-2.1057071E-2,3.535818E-2,-6.8260655E-2,-2.3588981E-2],"split_indices":[39,7,39,33,39,11,20,0,0,0,0,0,0,0,0],"split_type":[0,0,0,0,0,0,0,0,0,0,0,0,0,0,0],"sum_hessian":[3.050528E2,4.6918243E1,2.5813455E2,1.1451069E1,3.5467175E1,1.9312413E2,6.5010414E1,1.4461509E0,1.0004918E1,2.4739912E1,1.0727263E1,1.3654185E2,5.658227E1,3.945045E1,2.5559965E1],"tree_param":{"num_deleted":"0","num_feature":"44","num_nodes":"15","size_leaf_vector":"1"}},{"base_weights":[-5.2894574E-2,1.719205E-1,-2.8784594E-1,3.4457758E-2,6.502045E-1,-4.9276948E-1,-7.341863E-2,-4.4150567E-3,8.011757E-2,9.526085E-2,2.9403497E-2,-2.2556217E-2,-6.2312633E-2,-1.4505575E-2,8.5433476E-2],"categories":[],"categories_nodes":[],"categories_segments":[],"categories_sizes":[],"default_left":[0,0,0,0,0,0,0,0,0,0,0,0,0,0,0],"id":22,"left_children":[1,3,5,7,9,11,13,-1,-1,-1,-1,-1,-1,-1,-1],"loss_changes":[1.5976881E1,1.0149771E1,6.459155E0,7.3422217E0,3.434105E0,2.4861279E0,5.0028343E0,0E0,0E0,0E0,0E0,0E0,0E0,0E0,0E0],"parents":[2147483647,0,0,1,1,2,2,3,3,4,4,5,5,6,6],"right_children":[2,4,6,8,10,12,14,-1,-1,-1,-1,-1,-1,-1,-1],"split_conditions":[6.2E1,1E0,3.25E1,1E0,1E0,1E0,1E0,-4.4150567E-3,8.011757E-2,9.526085E-2,2.9403497E-2,-2.2556217E-2,-6.2312633E-2,-1.4505575E-2,8.5433476E-2],"split_indices":[39,29,20,31,26,22,36,0,0,0,0,0,0,0,0],"split_type":[0,0,0,0,0,0,0,0,0,0,0,0,0,0,0],"sum_hessian":[3.005375E2,1.5371877E2,1.4681874E2,1.2023444E2,3.3484318E1,7.44093E1,7.240945E1,1.0990842E2,1.0326026E1,1.7203327E1,1.6280993E1,2.5293228E1,4.9116074E1,6.800225E1,4.4071927E0],"tree_param":{"num_deleted":"0","num_feature":"44","num_nodes":"15","size_leaf_vector":"1"}},{"base_weights":[-4.7928803E-2,4.6291554E-1,-1.416814E-1,1.0489155E0,2.5927702E-1,-2.807918E-2,-4.7927633E-1,3.1292144E-2,1.1166444E-1,7.1171634E-2,-2.0523092E-3,2.2880952E-3,-8.712778E-2,-2.410107E-2,-6.2342472E-2],"categories":[],"categories_nodes":[],"categories_segments":[],"categories_sizes":[],"default_left":[0,0,0,0,0,0,0,0,0,0,0,0,0,0,0],"id":23,"left_children":[1,3,5,7,9,11,13,-1,-1,-1,-1,-1,-1,-1,-1],"loss_changes":[1.4315938E1,5.2619076E0,9.657728E0,2.3035526E-1,4.539376E0,8.173079E0,2.0282717E0,0E0,0E0,0E0,0E0,0E0,0E0,0E0,0E0],"parents":[2147483647,0,0,1,1,2,2,3,3,4,4,5,5,6,6],"right_children":[2,4,6,8,10,12,14,-1,-1,-1,-1,-1,-1,-1,-1],"split_conditions":[3.7E1,1E0,1E0,1E0,1E0,1.01E2,6.1E1,3.1292144E-2,1.1166444E-1,7.1171634E-2,-2.0523092E-3,2.2880952E-3,-8.712778E-2,-2.410107E-2,-6.2342472E-2],"split_indices":[39,7,0,33,22,39,39,0,0,0,0,0,0,0,0],"split_type":[0,0,0,0,0,0,0,0,0,0,0,0,0,0,0],"sum_hessian":[2.9654572E2,4.5373646E1,2.5117206E2,1.0630872E1,3.474277E1,1.8874252E2,6.2429535E1,1.3694619E0,9.26141E0,1.2685898E1,2.2056873E1,1.7890308E2,9.839445E0,2.4539572E1,3.7889965E1],"tree_param":{"num_deleted":"0","num_feature":"44","num_nodes":"15","size_leaf_vector":"1"}},{"base_weights":[-4.3743394E-2,6.0663536E-2,-4.5208138E-1,-9.523686E-2,3.9474118E-1,-3.304945E-1,-8.880682E-1,-2.7406216E-2,2.9739095E-2,2.0230953E-2,9.357986E-2,-5.3001624E-2,-7.2920728E-3,-9.550587E-2,-1.8660933E-2],"categories":[],"categories_nodes":[],"categories_segments":[],"categories_sizes":[],"default_left":[0,0,0,0,0,0,0,0,0,0,0,0,0,0,0],"id":24,"left_children":[1,3,5,7,9,11,13,-1,-1,-1,-1,-1,-1,-1,-1],"loss_changes":[1.2552085E1,1.2268639E1,2.883833E0,1.1380225E1,7.6105537E0,2.4518113E0,4.0811443E-1,0E0,0E0,0E0,0E0,0E0,0E0,0E0,0E0],"parents":[2147483647,0,0,1,1,2,2,3,3,4,4,5,5,6,6],"right_children":[2,4,6,8,10,12,14,-1,-1,-1,-1,-1,-1,-1,-1],"split_conditions":[8.3E1,1E0,1.02E2,1E0,1E0,3.75E1,1.2E1,-2.7406216E-2,2.9739095E-2,2.0230953E-2,9.357986E-2,-5.3001624E-2,-7.2920728E-3,-9.550587E-2,-1.8660933E-2],"split_indices":[39,11,39,8,4,20,35,0,0,0,0,0,0,0,0],"split_type":[0,0,0,0,0,0,0,0,0,0,0,0,0,0,0],"sum_hessian":[2.9277637E2,2.3383827E2,5.893809E1,1.5992345E2,7.391482E1,4.7460476E1,1.1477617E1,1.1008595E2,4.9837494E1,5.5536655E1,1.8378166E1,2.6147993E1,2.131248E1,1.0147027E1,1.3305902E0],"tree_param":{"num_deleted":"0","num_feature":"44","num_nodes":"15","size_leaf_vector":"1"}},{"base_weights":[-4.029583E-2,4.267901E-1,-1.2518433E-1,1.0073428E0,2.3803113E-1,-3.2597262E-1,3.7022423E-2,2.8125668E-2,1.07869506E-1,-3.1557138E-4,7.5338975E-2,7.278667E-4,-4.8060805E-2,-4.553882E-3,6.6601574E-2],"categories":[],"categories_nodes":[],"categories_segments":[],"categories_sizes":[],"default_left":[0,0,0,0,0,0,0,0,0,0,0,0,0,0,0],"id":25,"left_children":[1,3,5,7,9,11,13,-1,-1,-1,-1,-1,-1,-1,-1],"loss_changes":[1.1598314E1,4.692155E0,8.061958E0,2.52676E-1,4.386669E0,5.700321E0,7.1767054E0,0E0,0E0,0E0,0E0,0E0,0E0,0E0,0E0],"parents":[2147483647,0,0,1,1,2,2,3,3,4,4,5,5,6,6],"right_children":[2,4,6,8,10,12,14,-1,-1,-1,-1,-1,-1,-1,-1],"split_conditions":[3.7E1,1E0,3E0,1E0,2.8E1,1E0,9.3333336E1,2.8125668E-2,1.07869506E-1,-3.1557138E-4,7.5338975E-2,7.278667E-4,-4.8060805E-2,-4.553882E-3,6.6601574E-2],"split_indices":[39,7,35,33,39,7,20,0,0,0,0,0,0,0,0],"split_type":[0,0,0,0,0,0,0,0,0,0,0,0,0,0,0],"sum_hessian":[2.9016827E2,4.400575E1,2.4616252E2,9.733241E0,3.427251E1,1.0954821E2,1.366143E2,1.3130761E0,8.420165E0,2.4023455E1,1.0249055E1,3.5023277E1,7.452493E1,1.2158301E2,1.5031302E1],"tree_param":{"num_deleted":"0","num_feature":"44","num_nodes":"15","size_leaf_vector":"1"}},{"base_weights":[-3.6043327E-2,5.828996E-2,-4.1899547E-1,-8.412206E-2,3.5988364E-1,-2.9905033E-1,-8.6967576E-1,-2.421085E-2,2.5206326E-2,5.4350276E-2,-1.1679255E-2,-4.9071804E-2,-6.6208565E-3,-9.4121166E-2,-1.822976E-2],"categories":[],"categories_nodes":[],"categories_segments":[],"categories_sizes":[],"default_left":[0,0,0,0,0,0,0,0,0,0,0,0,0,0,0],"id":26,"left_children":[1,3,5,7,9,11,13,-1,-1,-1,-1,-1,-1,-1,-1],"loss_changes":[1.0422827E1,9.987539E0,2.8218803E0,8.467873E0,6.5884075E0,2.0450935E0,3.919363E-1,0E0,0E0,0E0,0E0,0E0,0E0,0E0,0E0],"parents":[2147483647,0,0,1,1,2,2,3,3,4,4,5,5,6,6],"right_children":[2,4,6,8,10,12,14,-1,-1,-1,-1,-1,-1,-1,-1],"split_conditions":[8.3E1,1E0,1.02E2,1E0,1E0,3.75E1,1.2E1,-2.421085E-2,2.5206326E-2,5.4350276E-2,-1.1679255E-2,-4.9071804E-2,-6.6208565E-3,-9.4121166E-2,-1.822976E-2],"split_indices":[39,11,39,8,38,20,35,0,0,0,0,0,0,0,0],"split_type":[0,0,0,0,0,0,0,0,0,0,0,0,0,0,0],"sum_hessian":[2.8684402E2,2.3083084E2,5.6013187E1,1.572831E2,7.354774E1,4.5553123E1,1.0460065E1,1.07190155E2,5.009295E1,5.2993908E1,2.0553833E1,2.437824E1,2.1174883E1,9.139621E0,1.3204442E0],"tree_param":{"num_deleted":"0","num_feature":"44","num_nodes":"15","size_leaf_vector":"1"}},{"base_weights":[-3.347738E-2,2.0115848E-1,-1.7506883E-1,6.2113304E-2,6.220398E-1,-7.745091E-2,-4.8185533E-1,-1.5819168E-3,7.250585E-2,7.340368E-2,-6.069604E-3,-2.5802648E-3,-8.188499E-2,-6.127441E-2,-2.4712734E-2],"categories":[],"categories_nodes":[],"categories_segments":[],"categories_sizes":[],"default_left":[0,0,0,0,0,0,0,0,0,0,0,0,0,0,0],"id":27,"left_children":[1,3,5,7,9,11,13,-1,-1,-1,-1,-1,-1,-1,-1],"loss_changes":[9.528665E0,6.2821317E0,5.315757E0,4.2633553E0,2.0869417E0,5.2168674E0,1.1683092E0,0E0,0E0,0E0,0E0,0E0,0E0,0E0,0E0],"parents":[2147483647,0,0,1,1,2,2,3,3,4,4,5,5,6,6],"right_children":[2,4,6,8,10,12,14,-1,-1,-1,-1,-1,-1,-1,-1],"split_conditions":[5.4E1,1E0,1E0,1.4E1,1E0,1.01E2,1E0,-1.5819168E-3,7.250585E-2,7.340368E-2,-6.069604E-3,-2.5802648E-3,-8.188499E-2,-6.127441E-2,-2.4712734E-2],"split_indices":[39,29,0,35,21,39,8,0,0,0,0,0,0,0,0],"split_type":[0,0,0,0,0,0,0,0,0,0,0,0,0,0,0],"sum_hessian":[2.8475418E2,1.0700762E2,1.7774655E2,8.129729E1,2.5710337E1,1.35791E2,4.1955555E1,7.361913E1,7.678154E0,2.2022581E1,3.687755E0,1.2791483E2,7.87616E0,2.5901787E1,1.6053766E1],"tree_param":{"num_deleted":"0","num_feature":"44","num_nodes":"15","size_leaf_vector":"1"}},{"base_weights":[-3.0749299E-2,3.7677827E-1,-1.0388701E-1,9.659548E-1,1.9813913E-1,-1.4761249E-2,-3.943522E-1,2.4183363E-2,1.0426891E-1,5.2428055E-3,1.01640485E-1,2.2041344E-3,-7.997449E-2,-3.0232726E-2,-7.586109E-2],"categories":[],"categories_nodes":[],"categories_segments":[],"categories_sizes":[],"default_left":[0,0,0,0,0,0,0,0,0,0,0,0,0,0,0],"id":28,"left_children":[1,3,5,7,9,11,13,-1,-1,-1,-1,-1,-1,-1,-1],"loss_changes":[8.462255E0,4.357148E0,6.2172437E0,2.921934E-1,4.0506096E0,5.3616724E0,1.6612988E0,0E0,0E0,0E0,0E0,0E0,0E0,0E0,0E0],"parents":[2147483647,0,0,1,1,2,2,3,3,4,4,5,5,6,6],"right_children":[2,4,6,8,10,12,14,-1,-1,-1,-1,-1,-1,-1,-1],"split_conditions":[3.7E1,1E0,1E0,1E0,9.1666664E1,1.01E2,1E0,2.4183363E-2,1.0426891E-1,5.2428055E-3,1.01640485E-1,2.2041344E-3,-7.997449E-2,-3.0232726E-2,-7.586109E-2],"split_indices":[39,7,0,33,20,39,13,0,0,0,0,0,0,0,0],"split_type":[0,0,0,0,0,0,0,0,0,0,0,0,0,0,0],"sum_hessian":[2.8160132E2,4.221656E1,2.3938477E2,8.796661E0,3.34199E1,1.839827E2,5.540206E1,1.2406399E0,7.556021E0,2.9271507E1,4.148394E0,1.7667168E2,7.311023E0,4.568927E1,9.712791E0],"tree_param":{"num_deleted":"0","num_feature":"44","num_nodes":"15","size_leaf_vector":"1"}},{"base_weights":[-2.7826304E-2,5.0777923E-2,-3.6624286E-1,-9.609842E-3,6.5489966E-1,-2.7170783E-1,-8.998001E-2,-1.5565707E-2,2.194754E-2,-2.4097184E-2,7.795285E-2,4.9189604E-3,-4.277305E-2],"categories":[],"categories_nodes":[],"categories_segments":[],"categories_sizes":[],"default_left":[0,0,0,0,0,0,0,0,0,0,0,0,0],"id":29,"left_children":[1,3,5,7,9,11,-1,-1,-1,-1,-1,-1,-1],"loss_changes":[7.4628863E0,8.323343E0,2.4223094E0,7.0015483E0,2.5026302E0,2.3414416E0,0E0,0E0,0E0,0E0,0E0,0E0,0E0],"parents":[2147483647,0,0,1,1,2,2,3,3,4,4,5,5],"right_children":[2,4,6,8,10,12,-1,-1,-1,-1,-1,-1,-1],"split_conditions":[8.3E1,1E0,1.03E2,4.4444443E1,6E0,1E0,-8.998001E-2,-1.5565707E-2,2.194754E-2,-2.4097184E-2,7.795285E-2,4.9189604E-3,-4.277305E-2],"split_indices":[39,31,39,20,34,7,0,0,0,0,0,0,0],"split_type":[0,0,0,0,0,0,0,0,0,0,0,0,0],"sum_hessian":[2.7885028E2,2.2697955E2,5.1870728E1,2.072473E2,1.9732264E1,4.5345673E1,6.525055E0,1.2675716E2,8.0490135E1,2.2958007E0,1.7436462E1,1.5058679E1,3.0286995E1],"tree_param":{"num_deleted":"0","num_feature":"44","num_nodes":"13","size_leaf_vector":"1"}},{"base_weights":[-2.5715446E-2,2.5634444E-1,-1.1368418E-1,6.621276E-1,1.19819954E-1,-1.64703E-1,3.761388E-1,9.087061E-2,1.2079086E-2,3.1974338E-4,9.3113564E-2,-1.1020928E-2,-5.2201863E-2,5.8575608E-2,-7.072176E-2],"categories":[],"categories_nodes":[],"categories_segments":[],"categories_sizes":[],"default_left":[0,0,0,0,0,0,0,0,0,0,0,0,0,0,0],"id":30,"left_children":[1,3,5,7,9,11,13,-1,-1,-1,-1,-1,-1,-1,-1],"loss_changes":[6.9303846E0,3.6008387E0,5.377524E0,2.0930395E0,4.8156486E0,3.707017E0,5.039994E0,0E0,0E0,0E0,0E0,0E0,0E0,0E0,0E0],"parents":[2147483647,0,0,1,1,2,2,3,3,4,4,5,5,6,6],"right_children":[2,4,6,8,10,12,14,-1,-1,-1,-1,-1,-1,-1,-1],"split_conditions":[4.7E1,1E0,1.5E1,1E0,1E0,1E0,1E0,9.087061E-2,1.2079086E-2,3.1974338E-4,9.3113564E-2,-1.1020928E-2,-5.2201863E-2,5.8575608E-2,-7.072176E-2],"split_indices":[39,7,35,11,31,13,5,0,0,0,0,0,0,0,0],"split_type":[0,0,0,0,0,0,0,0,0,0,0,0,0,0,0],"sum_hessian":[2.771363E2,6.542995E1,2.1170634E2,1.5502615E1,4.992733E1,1.9233675E2,1.9369598E1,1.0184808E1,5.317807E0,4.453027E1,5.3970594E0,1.6802058E2,2.431616E1,1.6614243E1,2.7553558E0],"tree_param":{"num_deleted":"0","num_feature":"44","num_nodes":"15","size_leaf_vector":"1"}},{"base_weights":[-2.3006972E-2,1.18219145E-1,-1.8126443E-1,4.8705693E-2,7.6600343E-1,-1.3471282E-1,-8.0556786E-1,-1.6048498E-3,6.777073E-2,-1.6658701E-2,8.644482E-2,-3.090336E-2,1.9301068E-3,-8.988608E-2,-6.9629373E-3],"categories":[],"categories_nodes":[],"categories_segments":[],"categories_sizes":[],"default_left":[0,0,0,0,0,0,0,0,0,0,0,0,0,0,0],"id":31,"left_children":[1,3,5,7,9,11,13,-1,-1,-1,-1,-1,-1,-1,-1],"loss_changes":[6.1767693E0,6.543294E0,3.677329E0,5.4298496E0,1.4379988E0,3.2928884E0,5.4425097E-1,0E0,0E0,0E0,0E0,0E0,0E0,0E0,0E0],"parents":[2147483647,0,0,1,1,2,2,3,3,4,4,5,5,6,6],"right_children":[2,4,6,8,10,12,14,-1,-1,-1,-1,-1,-1,-1,-1],"split_conditions":[6.2E1,1E0,1.02E2,1E0,6.25E0,3.25E1,1.2E1,-1.6048498E-3,6.777073E-2,-1.6658701E-2,8.644482E-2,-3.090336E-2,1.9301068E-3,-8.988608E-2,-6.9629373E-3],"split_indices":[39,14,39,31,20,20,35,0,0,0,0,0,0,0,0],"split_type":[0,0,0,0,0,0,0,0,0,0,0,0,0,0,0],"sum_hessian":[2.7440564E2,1.451391E2,1.2926653E2,1.3204463E2,1.3094464E1,1.21427956E2,7.838578E0,1.2060331E2,1.1441333E1,1.1841874E0,1.1910277E1,5.648679E1,6.494116E1,6.760223E0,1.078355E0],"tree_param":{"num_deleted":"0","num_feature":"44","num_nodes":"15","size_leaf_vector":"1"}},{"base_weights":[-2.0979112E-2,3.1752652E-1,-8.0795415E-2,9.1462535E-1,1.5220311E-1,-3.7901397E-3,-3.43596E-1,1.6806025E-2,1.0011969E-1,-8.81583E-3,6.756187E-2,2.5491498E-3,-7.436385E-2,-2.5623659E-2,-7.107683E-2],"categories":[],"categories_nodes":[],"categories_segments":[],"categories_sizes":[],"default_left":[0,0,0,0,0,0,0,0,0,0,0,0,0,0,0],"id":32,"left_children":[1,3,5,7,9,11,13,-1,-1,-1,-1,-1,-1,-1,-1],"loss_changes":[5.5551286E0,3.9290357E0,4.711357E0,3.9641142E-1,4.2710695E0,3.9425526E0,1.5102515E0,0E0,0E0,0E0,0E0,0E0,0E0,0E0,0E0],"parents":[2147483647,0,0,1,1,2,2,3,3,4,4,5,5,6,6],"right_children":[2,4,6,8,10,12,14,-1,-1,-1,-1,-1,-1,-1,-1],"split_conditions":[3.7E1,1E0,1E0,1E0,2.8E1,1.01E2,1E0,1.6806025E-2,1.0011969E-1,-8.81583E-3,6.756187E-2,2.5491498E-3,-7.436385E-2,-2.5623659E-2,-7.107683E-2],"split_indices":[39,7,0,33,39,39,13,0,0,0,0,0,0,0,0],"split_type":[0,0,0,0,0,0,0,0,0,0,0,0,0,0,0],"sum_hessian":[2.7208533E2,4.0212265E1,2.3187305E2,7.7368245E0,3.247544E1,1.8011157E2,5.1761486E1,1.1095666E0,6.627258E0,2.282526E1,9.65018E0,1.741833E2,5.9282627E0,4.3184647E1,8.576838E0],"tree_param":{"num_deleted":"0","num_feature":"44","num_nodes":"15","size_leaf_vector":"1"}},{"base_weights":[-1.9048382E-2,-1.1351885E-1,1.8360534E-1,-2.6389354E-1,1.9905064E-1,2.9804236E-1,-3.9099792E-1,-4.8943035E-2,-9.339135E-4,8.9886464E-2,6.909425E-3,4.489025E-2,-1.0664417E-2,-5.5096745E-2,8.253205E-2],"categories":[],"categories_nodes":[],"categories_segments":[],"categories_sizes":[],"default_left":[0,0,0,0,0,0,0,0,0,0,0,0,0,0,0],"id":33,"left_children":[1,3,5,7,9,11,13,-1,-1,-1,-1,-1,-1,-1,-1],"loss_changes":[5.208781E0,8.768819E0,5.8071375E0,7.208414E0,5.4679213E0,4.488476E0,3.3354867E0,0E0,0E0,0E0,0E0,0E0,0E0,0E0,0E0],"parents":[2147483647,0,0,1,1,2,2,3,3,4,4,5,5,6,6],"right_children":[2,4,6,8,10,12,14,-1,-1,-1,-1,-1,-1,-1,-1],"split_conditions":[1E0,1E0,8.3E1,3.4782608E1,4.6E1,1E0,1E0,-4.8943035E-2,-9.339135E-4,8.9886464E-2,6.909425E-3,4.489025E-2,-1.0664417E-2,-5.5096745E-2,8.253205E-2],"split_indices":[11,8,39,20,39,38,25,0,0,0,0,0,0,0,0],"split_type":[0,0,0,0,0,0,0,0,0,0,0,0,0,0,0],"sum_hessian":[2.699843E2,1.8444295E2,8.554137E1,1.2463686E2,5.9806084E1,7.173588E1,1.3805489E1,6.559585E1,5.9041016E1,8.440015E0,5.1366066E1,5.2176224E1,1.9559652E1,1.2684279E1,1.1212093E0],"tree_param":{"num_deleted":"0","num_feature":"44","num_nodes":"15","size_leaf_vector":"1"}},{"base_weights":[-1.7122505E-2,-6.1040863E-2,3.917858E-1,1.361166E-1,-1.4949036E-1,5.5432224E-1,-4.937446E-1,8.423307E-2,6.3456492E-3,-2.7544612E-2,1.1143721E-2,6.85346E-2,-6.830897E-2,-6.3464954E-3,-7.7644065E-2],"categories":[],"categories_nodes":[],"categories_segments":[],"categories_sizes":[],"default_left":[0,0,0,0,0,0,0,0,0,0,0,0,0,0,0],"id":34,"left_children":[1,3,5,7,9,11,13,-1,-1,-1,-1,-1,-1,-1,-1],"loss_changes":[4.8486304E0,4.266038E0,4.043413E0,3.8424058E0,5.5699563E0,4.132376E0,5.091262E-1,0E0,0E0,0E0,0E0,0E0,0E0,0E0,0E0],"parents":[2147483647,0,0,1,1,2,2,3,3,4,4,5,5,6,6],"right_children":[2,4,6,8,10,12,14,-1,-1,-1,-1,-1,-1,-1,-1],"split_conditions":[1.5E1,1E0,1E0,3.7E1,1E0,9.5E1,2.4E1,8.423307E-2,6.3456492E-3,-2.7544612E-2,1.1143721E-2,6.85346E-2,-6.830897E-2,-6.3464954E-3,-7.7644065E-2],"split_indices":[35,7,5,39,11,39,34,0,0,0,0,0,0,0,0],"split_type":[0,0,0,0,0,0,0,0,0,0,0,0,0,0,0],"sum_hessian":[2.6765793E2,2.4246678E2,2.5191162E1,7.492254E1,1.6754424E2,2.1600481E1,3.5906808E0,6.0012374E0,6.8921295E1,1.1296014E2,5.4584103E1,1.9935726E1,1.6647539E0,1.9092265E0,1.6814542E0],"tree_param":{"num_deleted":"0","num_feature":"44","num_nodes":"15","size_leaf_vector":"1"}},{"base_weights":[-1.5620527E-2,1.7467145E-2,-5.3995365E-1,-2.7816163E-2,4.3409035E-1,-6.3074595E-1,2.7214313E-2,9.9847E-3,-1.7136635E-2,5.8390923E-2,-4.246783E-2,-7.76425E-2,-3.9214925E-3],"categories":[],"categories_nodes":[],"categories_segments":[],"categories_sizes":[],"default_left":[0,0,0,0,0,0,0,0,0,0,0,0,0],"id":35,"left_children":[1,3,5,7,9,11,-1,-1,-1,-1,-1,-1,-1],"loss_changes":[4.6445994E0,4.7716527E0,1.3432789E0,4.204424E0,3.4378204E0,1.2271571E0,0E0,0E0,0E0,0E0,0E0,0E0,0E0],"parents":[2147483647,0,0,1,1,2,2,3,3,4,4,5,5],"right_children":[2,4,6,8,10,12,-1,-1,-1,-1,-1,-1,-1],"split_conditions":[9.8E1,1.5E1,1E2,1.4E1,1E0,9E0,2.7214313E-2,9.9847E-3,-1.7136635E-2,5.8390923E-2,-4.246783E-2,-7.76425E-2,-3.9214925E-3],"split_indices":[39,35,20,34,5,35,0,0,0,0,0,0,0],"split_type":[0,0,0,0,0,0,0,0,0,0,0,0,0],"sum_hessian":[2.6617264E2,2.5128235E2,1.4890308E1,2.2748946E2,2.3792885E1,1.3593832E1,1.2964764E0,1.2056876E2,1.069207E2,2.0531132E1,3.2617538E0,1.0656771E1,2.9370613E0],"tree_param":{"num_deleted":"0","num_feature":"44","num_nodes":"13","size_leaf_vector":"1"}},{"base_weights":[-1.4453064E-2,-5.1959343E-2,4.3073502E-1,-9.3352586E-2,4.0883765E-1,6.705307E-1,-2.6239038E-1,-1.8565942E-2,4.6274248E-3,5.7745278E-2,-5.11643E-2,2.9961754E-2,1.00269735E-1,2.1057937E-2,-7.479539E-2],"categories":[],"categories_nodes":[],"categories_segments":[],"categories_sizes":[],"default_left":[0,0,0,0,0,0,0,0,0,0,0,0,0,0,0],"id":36,"left_children":[1,3,5,7,9,11,13,-1,-1,-1,-1,-1,-1,-1,-1],"loss_changes":[4.4691133E0,4.740126E0,3.633199E0,2.934388E0,3.4779427E0,1.638257E0,1.5504439E0,0E0,0E0,0E0,0E0,0E0,0E0,0E0,0E0],"parents":[2147483647,0,0,1,1,2,2,3,3,4,4,5,5,6,6],"right_children":[2,4,6,8,10,12,14,-1,-1,-1,-1,-1,-1,-1,-1],"split_conditions":[1E0,1E0,1E0,4.5454544E1,8.3E1,4.347826E1,5.6E1,-1.8565942E-2,4.6274248E-3,5.7745278E-2,-5.11643E-2,2.9961754E-2,1.00269735E-1,2.1057937E-2,-7.479539E-2],"split_indices":[14,31,38,20,39,20,39,0,0,0,0,0,0,0,0],"split_type":[0,0,0,0,0,0,0,0,0,0,0,0,0,0,0],"sum_hessian":[2.6531375E2,2.4551302E2,1.9800734E1,2.2600818E2,1.9504831E1,1.4735422E1,5.0653114E0,1.3586116E2,9.0147026E1,1.6800035E1,2.704796E0,7.8602734E0,6.875149E0,2.8528113E0,2.2125003E0],"tree_param":{"num_deleted":"0","num_feature":"44","num_nodes":"15","size_leaf_vector":"1"}},{"base_weights":[-1.2931208E-2,2.8443798E-1,-6.4087875E-2,1.5587732E-1,9.742836E-2,-8.371236E-2,-4.002447E-2,-8.372161E-3,6.690604E-2,-8.233886E-3,4.5801714E-2],"categories":[],"categories_nodes":[],"categories_segments":[],"categories_sizes":[],"default_left":[0,0,0,0,0,0,0,0,0,0,0],"id":37,"left_children":[1,3,5,7,-1,-1,9,-1,-1,-1,-1],"loss_changes":[4.050182E0,3.3146403E0,4.1883106E0,4.2534876E0,0E0,0E0,4.6984105E0,0E0,0E0,0E0,0E0],"parents":[2147483647,0,0,1,1,2,2,3,3,6,6],"right_children":[2,4,6,8,-1,-1,10,-1,-1,-1,-1],"split_conditions":[3.7E1,9.1666664E1,2E0,2.8E1,9.742836E-2,-8.371236E-2,9.3333336E1,-8.372161E-3,6.690604E-2,-8.233886E-3,4.5801714E-2],"split_indices":[39,20,34,39,0,0,20,0,0,0,0],"split_type":[0,0,0,0,0,0,0,0,0,0,0],"sum_hessian":[2.6404352E2,3.8087E1,2.2595653E2,3.3137424E1,4.9495807E0,5.801315E0,2.2015521E2,2.3160791E1,9.976632E0,2.0368452E2,1.647068E1],"tree_param":{"num_deleted":"0","num_feature":"44","num_nodes":"11","size_leaf_vector":"1"}},{"base_weights":[-1.1295418E-2,6.850395E-3,-8.447209E-2,-5.182256E-2,2.541142E-1,1.4417596E-2,-1.5940329E-2,4.548515E-2,-2.6556551E-2],"categories":[],"categories_nodes":[],"categories_segments":[],"categories_sizes":[],"default_left":[0,0,0,0,0,0,0,0,0],"id":38,"left_children":[1,3,-1,5,7,-1,-1,-1,-1],"loss_changes":[3.9904792E0,3.7686303E0,0E0,4.4519415E0,5.3173327E0,0E0,0E0,0E0,0E0],"parents":[2147483647,0,0,1,1,3,3,4,4],"right_children":[2,4,-1,6,8,-1,-1,-1,-1],"split_conditions":[1.03E2,1E0,-8.447209E-2,1E0,1E0,1.4417596E-2,-1.5940329E-2,4.548515E-2,-2.6556551E-2],"split_indices":[39,29,0,22,38,0,0,0,0],"split_type":[0,0,0,0,0,0,0,0,0],"sum_hessian":[2.624824E2,2.578599E2,4.622492E0,2.0904602E2,4.8813885E1,7.396002E1,1.35086E2,3.530235E1,1.3511536E1],"tree_param":{"num_deleted":"0","num_feature":"44","num_nodes":"9","size_leaf_vector":"1"}},{"base_weights":[-1.05985245E-2,1.0090402E-1,-1.3736098E-1,1.5827514E-1,-4.7080955E-1,-1.05550185E-1,-8.3057955E-2,5.3056288E-3,5.3186048E-2,1.3933963E-2,-7.524146E-2,4.6392786E-3,-2.4993101E-2],"categories":[],"categories_nodes":[],"categories_segments":[],"categories_sizes":[],"default_left":[0,0,0,0,0,0,0,0,0,0,0,0,0],"id":39,"left_children":[1,3,5,7,9,11,-1,-1,-1,-1,-1,-1,-1],"loss_changes":[3.7266245E0,4.6772118E0,2.6324315E0,5.014147E0,2.3469481E0,2.6240149E0,0E0,0E0,0E0,0E0,0E0,0E0,0E0],"parents":[2147483647,0,0,1,1,2,2,3,3,4,4,5,5],"right_children":[2,4,6,8,10,12,-1,-1,-1,-1,-1,-1,-1],"split_conditions":[6.2E1,1E0,1.03E2,1E0,3.1E1,1.4E1,-8.3057955E-2,5.3056288E-3,5.3186048E-2,1.3933963E-2,-7.524146E-2,4.6392786E-3,-2.4993101E-2],"split_indices":[39,32,39,29,39,34,0,0,0,0,0,0,0],"split_type":[0,0,0,0,0,0,0,0,0,0,0,0,0],"sum_hessian":[2.6167697E2,1.3932669E2,1.2235028E2,1.2727761E2,1.2049077E1,1.1808385E2,4.2664347E0,1.00198975E2,2.707863E1,3.9644854E0,8.084591E0,5.786586E1,6.0217987E1],"tree_param":{"num_deleted":"0","num_feature":"44","num_nodes":"13","size_leaf_vector":"1"}},{"base_weights":[-1.0134281E-2,3.0314587E-2,-3.3236778E-1,1.5051056E-1,-1.10280566E-1,5.5035222E-2,-4.1666827E-1,9.288057E-3,6.7190275E-2,1.3525734E-2,-2.5225013E-2,-7.754152E-2,-9.2294795E-4],"categories":[],"categories_nodes":[],"categories_segments":[],"categories_sizes":[],"default_left":[0,0,0,0,0,0,0,0,0,0,0,0,0],"id":40,"left_children":[1,3,5,7,9,-1,11,-1,-1,-1,-1,-1,-1],"loss_changes":[3.4139915E0,3.9531703E0,2.4029124E0,3.723836E0,3.796797E0,0E0,3.973333E0,0E0,0E0,0E0,0E0,0E0,0E0],"parents":[2147483647,0,0,1,1,2,2,3,3,4,4,6,6],"right_children":[2,4,6,8,10,-1,12,-1,-1,-1,-1,-1,-1],"split_conditions":[1E0,6.2E1,6.6666665E0,1E0,1E0,5.5035222E-2,3.75E1,9.288057E-3,6.7190275E-2,1.3525734E-2,-2.5225013E-2,-7.754152E-2,-9.2294795E-4],"split_indices":[13,39,20,14,22,0,20,0,0,0,0,0,0],"split_type":[0,0,0,0,0,0,0,0,0,0,0,0,0],"sum_hessian":[2.6015704E2,2.319474E2,2.820964E1,1.2500719E2,1.06940216E2,1.9772435E0,2.6232397E1,1.1362612E2,1.1381071E1,3.9196583E1,6.774364E1,1.3469475E1,1.2762923E1],"tree_param":{"num_deleted":"0","num_feature":"44","num_nodes":"13","size_leaf_vector":"1"}},{"base_weights":[-9.186976E-3,-6.936531E-1,9.308846E-3,-7.626672E-1,-1.4651224E-2,-3.9137885E-2,5.401555E-1,-8.4478505E-2,-2.5256945E-2,1.6116826E-2,-1.2768482E-2,7.1821876E-2,-2.4132775E-2],"categories":[],"categories_nodes":[],"categories_segments":[],"categories_sizes":[],"default_left":[0,0,0,0,0,0,0,0,0,0,0,0,0],"id":41,"left_children":[1,3,5,7,-1,9,11,-1,-1,-1,-1,-1,-1],"loss_changes":[3.2927365E0,1.4666343E-1,6.5468044E0,3.1216621E-2,0E0,4.16122E0,3.135643E0,0E0,0E0,0E0,0E0,0E0,0E0],"parents":[2147483647,0,0,1,1,2,2,3,3,5,5,6,6],"right_children":[2,4,6,8,-1,10,12,-1,-1,-1,-1,-1,-1],"split_conditions":[2E0,1E0,9.3333336E1,1E0,-1.4651224E-2,1E0,8.3E1,-8.4478505E-2,-2.5256945E-2,1.6116826E-2,-1.2768482E-2,7.1821876E-2,-2.4132775E-2],"split_indices":[34,29,20,24,0,7,39,0,0,0,0,0,0],"split_type":[0,0,0,0,0,0,0,0,0,0,0,0,0],"sum_hessian":[2.5858456E2,5.843242E0,2.5274132E2,4.838962E0,1.0042804E0,2.3245319E2,2.0288136E1,3.6028368E0,1.2361251E0,7.1006325E1,1.6144687E2,1.6589193E1,3.6989417E0],"tree_param":{"num_deleted":"0","num_feature":"44","num_nodes":"13","size_leaf_vector":"1"}},{"base_weights":[-8.671171E-3,6.66766E-3,-8.122455E-2,-6.5706146E-1,2.3861839E-2,-3.242098E-2,-7.97883E-2,-2.0318227E-3,5.0271958E-2],"categories":[],"categories_nodes":[],"categories_segments":[],"categories_sizes":[],"default_left":[0,0,0,0,0,0,0,0,0],"id":42,"left_children":[1,3,-1,5,7,-1,-1,-1,-1],"loss_changes":[3.1975002E0,2.9271219E0,0E0,4.4914007E-2,5.2915473E0,0E0,0E0,0E0,0E0],"parents":[2147483647,0,0,1,1,3,3,4,4],"right_children":[2,4,-1,6,8,-1,-1,-1,-1],"split_conditions":[1.03E2,2E0,-8.122455E-2,6E1,9.3333336E1,-3.242098E-2,-7.97883E-2,-2.0318227E-3,5.0271958E-2],"split_indices":[39,34,0,39,20,0,0,0,0],"split_type":[0,0,0,0,0,0,0,0,0],"sum_hessian":[2.579739E2,2.54115E2,3.8589091E0,5.4770217E0,2.4863799E2,2.6100569E0,2.8669648E0,2.2851266E2,2.0125319E1],"tree_param":{"num_deleted":"0","num_feature":"44","num_nodes":"9","size_leaf_vector":"1"}},{"base_weights":[-8.480579E-3,5.700697E-3,-7.9757296E-2,4.2661864E-2,-2.9612002E-1,-2.4460927E-2,8.361026E-3,5.292967E-2,-3.803081E-2],"categories":[],"categories_nodes":[],"categories_segments":[],"categories_sizes":[],"default_left":[0,0,0,0,0,0,0,0,0],"id":43,"left_children":[1,3,-1,5,7,-1,-1,-1,-1],"loss_changes":[2.8968961E0,2.8561883E0,0E0,2.702046E0,2.1425319E0,0E0,0E0,0E0,0E0],"parents":[2147483647,0,0,1,1,3,3,4,4],"right_children":[2,4,-1,6,8,-1,-1,-1,-1],"split_conditions":[1.03E2,1E0,-7.9757296E-2,8.333333E0,6.6666665E0,-2.4460927E-2,8.361026E-3,5.292967E-2,-3.803081E-2],"split_indices":[39,13,0,20,20,0,0,0,0],"split_type":[0,0,0,0,0,0,0,0,0],"sum_hessian":[2.5746848E2,2.538983E2,3.5701907E0,2.2696292E2,2.6935379E1,2.76952E1,1.9926772E2,2.003649E0,2.493173E1],"tree_param":{"num_deleted":"0","num_feature":"44","num_nodes":"9","size_leaf_vector":"1"}},{"base_weights":[-8.081159E-3,1.5524276E-2,-4.4164675E-1,-6.457235E-2,1.8254168E-1,-5.4615927E-1,3.4803614E-2,-2.0149095E-2,2.0845277E-2,2.5089128E-2,-4.0792786E-2,-6.69639E-2,2.6879964E-2],"categories":[],"categories_nodes":[],"categories_segments":[],"categories_sizes":[],"default_left":[0,0,0,0,0,0,0,0,0,0,0,0,0],"id":44,"left_children":[1,3,5,7,9,11,-1,-1,-1,-1,-1,-1,-1],"loss_changes":[2.648044E0,3.2987547E0,1.2926178E0,6.2775745E0,3.3270674E0,1.4063628E0,0E0,0E0,0E0,0E0,0E0,0E0,0E0],"parents":[2147483647,0,0,1,1,2,2,3,3,4,4,5,5],"right_children":[2,4,6,8,10,12,-1,-1,-1,-1,-1,-1,-1],"split_conditions":[9.8E1,1E0,1E2,1E0,1E0,1E0,3.4803614E-2,-2.0149095E-2,2.0845277E-2,2.5089128E-2,-4.0792786E-2,-6.69639E-2,2.6879964E-2],"split_indices":[39,11,20,8,32,42,0,0,0,0,0,0,0],"split_type":[0,0,0,0,0,0,0,0,0,0,0,0,0],"sum_hessian":[2.57067E2,2.4470808E2,1.2358912E1,1.6580586E2,7.890222E1,1.1186755E1,1.1721569E0,1.1060225E2,5.520361E1,7.1231895E1,7.670325E0,9.869655E0,1.3171002E0],"tree_param":{"num_deleted":"0","num_feature":"44","num_nodes":"13","size_leaf_vector":"1"}},{"base_weights":[-7.5608585E-3,-6.4761895E-1,8.770843E-3,-3.1499237E-1,-7.902827E-2,-3.0365724E-2,4.2908415E-1,-4.0079467E-2,-6.002551E-3,-9.827607E-4,-8.374019E-2,5.8834344E-2,-2.5638029E-2],"categories":[],"categories_nodes":[],"categories_segments":[],"categories_sizes":[],"default_left":[0,0,0,0,0,0,0,0,0,0,0,0,0],"id":45,"left_children":[1,3,5,7,-1,9,11,-1,-1,-1,-1,-1,-1],"loss_changes":[2.6972158E0,5.5712223E-2,4.1593804E0,5.447349E-2,0E0,3.8293214E0,2.5019836E0,0E0,0E0,0E0,0E0,0E0,0E0],"parents":[2147483647,0,0,1,1,2,2,3,3,5,5,6,6],"right_children":[2,4,6,8,-1,10,12,-1,-1,-1,-1,-1,-1],"split_conditions":[2E0,6E1,9.3333336E1,1E0,-7.902827E-2,9E1,8.3E1,-4.0079467E-2,-6.002551E-3,-9.827607E-4,-8.374019E-2,5.8834344E-2,-2.5638029E-2],"split_indices":[34,39,20,37,0,20,39,0,0,0,0,0,0],"split_type":[0,0,0,0,0,0,0,0,0,0,0,0,0],"sum_hessian":[2.5648346E2,5.4198346E0,2.5106363E2,2.5897226E0,2.830112E0,2.3052641E2,2.0537214E1,1.5097191E0,1.0800037E0,2.2579243E2,4.733974E0,1.6780222E1,3.756993E0],"tree_param":{"num_deleted":"0","num_feature":"44","num_nodes":"13","size_leaf_vector":"1"}},{"base_weights":[-7.57245E-3,2.3763512E-1,-4.8740704E-2,5.1265333E-2,6.556191E-1,-7.527732E-2,-2.967837E-2,3.2352563E-2,-5.3748053E-2,8.072256E-2,7.5602755E-3,-1.5645352E-3,-7.6539926E-2],"categories":[],"categories_nodes":[],"categories_segments":[],"categories_sizes":[],"default_left":[0,0,0,0,0,0,0,0,0,0,0,0,0],"id":46,"left_children":[1,3,5,7,9,-1,11,-1,-1,-1,-1,-1,-1],"loss_changes":[2.6064453E0,2.8582346E0,2.9426177E0,4.4632573E0,9.381709E-1,0E0,2.2195842E0,0E0,0E0,0E0,0E0,0E0,0E0],"parents":[2147483647,0,0,1,1,2,2,3,3,4,4,6,6],"right_children":[2,4,6,8,10,-1,12,-1,-1,-1,-1,-1,-1],"split_conditions":[3.7E1,2.8E1,2E0,1E0,1E0,-7.527732E-2,1.03E2,3.2352563E-2,-5.3748053E-2,8.072256E-2,7.5602755E-3,-1.5645352E-3,-7.6539926E-2],"split_indices":[39,39,34,1,38,0,39,0,0,0,0,0,0],"split_type":[0,0,0,0,0,0,0,0,0,0,0,0,0],"sum_hessian":[2.560503E2,3.612273E1,2.1992755E2,2.5759699E1,1.03630295E1,4.783081E0,2.1514447E2,1.7922215E1,7.837485E0,7.9050527E0,2.4579768E0,2.121198E2,3.0246732E0],"tree_param":{"num_deleted":"0","num_feature":"44","num_nodes":"13","size_leaf_vector":"1"}},{"base_weights":[-7.189018E-3,-3.814714E-2,3.075231E-1,-7.072927E-2,3.8991573E-1,4.372036E-1,-5.012963E-1,-9.11421E-3,4.2058613E-2,5.75301E-2,-2.2149941E-2,6.912483E-2,1.2168101E-3,-3.7234228E-3,-6.688178E-2],"categories":[],"categories_nodes":[],"categories_segments":[],"categories_sizes":[],"default_left":[0,0,0,0,0,0,0,0,0,0,0,0,0,0,0],"id":47,"left_children":[1,3,5,7,9,11,13,-1,-1,-1,-1,-1,-1,-1,-1],"loss_changes":[2.5062366E0,3.2911203E0,2.6358547E0,2.2275777E0,2.020805E0,2.1933737E0,2.58816E-1,0E0,0E0,0E0,0E0,0E0,0E0,0E0,0E0],"parents":[2147483647,0,0,1,1,2,2,3,3,4,4,5,5,6,6],"right_children":[2,4,6,8,10,12,14,-1,-1,-1,-1,-1,-1,-1,-1],"split_conditions":[1E0,1E0,8.3E1,1E0,1E0,4.7058823E1,1E0,-9.11421E-3,4.2058613E-2,5.75301E-2,-2.2149941E-2,6.912483E-2,1.2168101E-3,-3.7234228E-3,-6.688178E-2],"split_indices":[31,14,39,36,38,20,37,0,0,0,0,0,0,0,0],"split_type":[0,0,0,0,0,0,0,0,0,0,0,0,0,0,0],"sum_hessian":[2.5503322E2,2.3299261E2,2.2040615E1,2.172884E2,1.57042E1,1.9391045E1,2.6495707E0,2.0940279E2,7.8856273E0,1.2095752E1,3.6084478E0,1.1744812E1,7.646233E0,1.0269674E0,1.6226032E0],"tree_param":{"num_deleted":"0","num_feature":"44","num_nodes":"15","size_leaf_vector":"1"}},{"base_weights":[-6.3101603E-3,-1.5302885E-2,9.651687E-2,1.2282004E-1,-7.9067715E-2,2.289779E-2,-2.6034474E-2,-2.0766621E-2,1.5832119E-2],"categories":[],"categories_nodes":[],"categories_segments":[],"categories_sizes":[],"default_left":[0,0,0,0,0,0,0,0,0],"id":48,"left_children":[1,3,-1,5,7,-1,-1,-1,-1],"loss_changes":[2.2458167E0,2.2469666E0,0E0,3.3389976E0,5.356881E0,0E0,0E0,0E0,0E0],"parents":[2147483647,0,0,1,1,3,3,4,4],"right_children":[2,4,-1,6,8,-1,-1,-1,-1],"split_conditions":[1E0,1E0,9.651687E-2,6.875E1,1E0,2.289779E-2,-2.6034474E-2,-2.0766621E-2,1.5832119E-2],"split_indices":[12,7,0,20,11,0,0,0,0],"split_type":[0,0,0,0,0,0,0,0,0],"sum_hessian":[2.543783E2,2.530204E2,1.3578956E0,7.96222E1,1.733982E2,6.266338E1,1.695882E1,1.1255177E2,6.0846428E1],"tree_param":{"num_deleted":"0","num_feature":"44","num_nodes":"9","size_leaf_vector":"1"}},{"base_weights":[-5.4495037E-3,6.179915E-3,-7.562604E-2,3.7552953E-2,-2.5725025E-1,-2.2670662E-2,7.473162E-3,-5.2008666E-2,6.7097293E-3],"categories":[],"categories_nodes":[],"categories_segments":[],"categories_sizes":[],"default_left":[0,0,0,0,0,0,0,0,0],"id":49,"left_children":[1,3,-1,5,7,-1,-1,-1,-1],"loss_changes":[2.2322001E0,2.0941153E0,0E0,2.2397738E0,2.333939E0,0E0,0E0,0E0,0E0],"parents":[2147483647,0,0,1,1,3,3,4,4],"right_children":[2,4,-1,6,8,-1,-1,-1,-1],"split_conditions":[1.03E2,1E0,-7.562604E-2,8.333333E0,3.75E1,-2.2670662E-2,7.473162E-3,-5.2008666E-2,6.7097293E-3],"split_indices":[39,13,0,20,20,0,0,0,0],"split_type":[0,0,0,0,0,0,0,0,0],"sum_hessian":[2.5411403E2,2.512147E2,2.8993318E0,2.2524657E2,2.596814E1,2.7152624E1,1.9809393E2,1.40108795E1,1.195726E1],"tree_param":{"num_deleted":"0","num_feature":"44","num_nodes":"9","size_leaf_vector":"1"}},{"base_weights":[-5.556755E-3,2.2044164E-1,-4.3025047E-2,8.053521E-1,8.5446864E-2,-7.150432E-2,-2.5621675E-2,9.176656E-2,1.5327486E-2,5.1695533E-2,-1.660211E-2,8.000844E-3,-1.1911407E-2],"categories":[],"categories_nodes":[],"categories_segments":[],"categories_sizes":[],"default_left":[0,0,0,0,0,0,0,0,0,0,0,0,0],"id":50,"left_children":[1,3,5,7,9,-1,11,-1,-1,-1,-1,-1,-1],"loss_changes":[2.166568E0,2.8045816E0,2.5470583E0,3.5041285E-1,3.415517E0,0E0,2.1313033E0,0E0,0E0,0E0,0E0,0E0,0E0],"parents":[2147483647,0,0,1,1,2,2,3,3,4,4,6,6],"right_children":[2,4,6,8,10,-1,12,-1,-1,-1,-1,-1,-1],"split_conditions":[3.7E1,1E0,2E0,1E0,1E0,-7.150432E-2,1.4E1,9.176656E-2,1.5327486E-2,5.1695533E-2,-1.660211E-2,8.000844E-3,-1.1911407E-2],"split_indices":[39,7,34,25,22,0,34,0,0,0,0,0,0],"split_type":[0,0,0,0,0,0,0,0,0,0,0,0,0],"sum_hessian":[2.5374034E2,3.53906E1,2.1834975E2,5.7051797E0,2.968542E1,4.4999785E0,2.1384978E2,4.519455E0,1.1857247E0,1.0541278E1,1.914414E1,1.00474884E2,1.13374886E2],"tree_param":{"num_deleted":"0","num_feature":"44","num_nodes":"13","size_leaf_vector":"1"}},{"base_weights":[-4.735153E-3,5.607939E-2,-1.3702089E-1,-1.3810114E-2,3.2500368E-1,5.219963E-1,-1.9156635E-1,1.753798E-2,-1.2701616E-2,5.5350247E-3,9.817624E-2,7.185857E-2,-7.5341812E-3,3.917537E-3,-3.2725777E-2],"categories":[],"categories_nodes":[],"categories_segments":[],"categories_sizes":[],"default_left":[0,0,0,0,0,0,0,0,0,0,0,0,0,0,0],"id":51,"left_children":[1,3,5,7,9,11,13,-1,-1,-1,-1,-1,-1,-1,-1],"loss_changes":[2.0497394E0,3.2861035E0,2.9840398E0,3.0109453E0,6.331229E0,8.058653E-1,2.355733E0,0E0,0E0,0E0,0E0,0E0,0E0,0E0,0E0],"parents":[2147483647,0,0,1,1,2,2,3,3,4,4,5,5,6,6],"right_children":[2,4,6,8,10,12,14,-1,-1,-1,-1,-1,-1,-1,-1],"split_conditions":[1E0,1E0,2.2E1,1E0,1E0,1E0,1.1E1,1.753798E-2,-1.2701616E-2,5.5350247E-3,9.817624E-2,7.185857E-2,-7.5341812E-3,3.917537E-3,-3.2725777E-2],"split_indices":[38,29,39,22,27,24,34,0,0,0,0,0,0,0,0],"split_type":[0,0,0,0,0,0,0,0,0,0,0,0,0,0,0],"sum_hessian":[2.5283235E2,1.7360057E2,7.923177E1,1.3854373E2,3.505685E1,5.4014626E0,7.3830315E1,5.1660126E1,8.68836E1,2.5621428E1,9.435423E0,3.9112542E0,1.4902085E0,2.7603004E1,4.6227306E1],"tree_param":{"num_deleted":"0","num_feature":"44","num_nodes":"15","size_leaf_vector":"1"}},{"base_weights":[-3.8376718E-3,6.9584483E-3,-7.39116E-2,-1.3957161E-3,8.854191E-2,-3.1214585E-3,2.6788155E-2],"categories":[],"categories_nodes":[],"categories_segments":[],"categories_sizes":[],"default_left":[0,0,0,0,0,0,0],"id":52,"left_children":[1,3,-1,5,-1,-1,-1],"loss_changes":[2.0143476E0,1.8391323E0,0E0,2.0083172E0,0E0,0E0,0E0],"parents":[2147483647,0,0,1,1,3,3],"right_children":[2,4,-1,6,-1,-1,-1],"split_conditions":[1.03E2,1E0,-7.39116E-2,1.5E1,8.854191E-2,-3.1214585E-3,2.6788155E-2],"split_indices":[39,12,0,35,0,0,0],"split_type":[0,0,0,0,0,0,0],"sum_hessian":[2.5210732E2,2.4943538E2,2.6719334E0,2.480746E2,1.3607794E0,2.2413835E2,2.3936253E1],"tree_param":{"num_deleted":"0","num_feature":"44","num_nodes":"7","size_leaf_vector":"1"}},{"base_weights":[-3.3486697E-3,7.630645E-2,-9.569513E-2,1.264926E-1,-4.3393886E-1,4.2563442E-2,-2.30399E-1,4.5295055E-3,4.2104088E-2,1.0664999E-2,-6.885188E-2,1.3713488E-2,-4.168767E-2,-3.3293948E-2,1.4784242E-2],"categories":[],"categories_nodes":[],"categories_segments":[],"categories_sizes":[],"default_left":[0,0,0,0,0,0,0,0,0,0,0,0,0,0,0],"id":53,"left_children":[1,3,5,7,9,11,13,-1,-1,-1,-1,-1,-1,-1,-1],"loss_changes":[1.8662703E0,3.5436087E0,2.1977422E0,2.9660468E0,1.7835119E0,2.6128452E0,2.3631651E0,0E0,0E0,0E0,0E0,0E0,0E0,0E0,0E0],"parents":[2147483647,0,0,1,1,2,2,3,3,4,4,5,5,6,6],"right_children":[2,4,6,8,10,12,14,-1,-1,-1,-1,-1,-1,-1,-1],"split_conditions":[6.2E1,1E0,1.4E1,1E0,3.1E1,7E0,7.692308E1,4.5295055E-3,4.2104088E-2,1.0664999E-2,-6.885188E-2,1.3713488E-2,-4.168767E-2,-3.3293948E-2,1.4784242E-2],"split_indices":[39,32,34,29,39,35,20,0,0,0,0,0,0,0,0],"split_type":[0,0,0,0,0,0,0,0,0,0,0,0,0,0,0],"sum_hessian":[2.5171906E2,1.3523947E2,1.1647958E2,1.23813644E2,1.1425834E1,5.7818913E1,5.866067E1,9.796233E1,2.585131E1,3.8441114E0,7.5817223E0,4.8530815E1,9.2880945E0,4.624383E1,1.241684E1],"tree_param":{"num_deleted":"0","num_feature":"44","num_nodes":"15","size_leaf_vector":"1"}},{"base_weights":[-3.404768E-3,-3.0262526E-2,2.642751E-1,-1.1534598E-1,8.86729E-2,7.3917204E-1,5.1254123E-2,8.187757E-2,-1.3922202E-2,3.8995352E-3,6.787907E-2,9.3777075E-2,-1.8667515E-2,4.4685207E-2,-5.255374E-2],"categories":[],"categories_nodes":[],"categories_segments":[],"categories_sizes":[],"default_left":[0,0,0,0,0,0,0,0,0,0,0,0,0,0,0],"id":54,"left_children":[1,3,5,7,9,11,13,-1,-1,-1,-1,-1,-1,-1,-1],"loss_changes":[1.8173207E0,2.333833E0,2.2940764E0,3.1091557E0,2.7973442E0,1.4738641E0,4.111091E0,0E0,0E0,0E0,0E0,0E0,0E0,0E0,0E0],"parents":[2147483647,0,0,1,1,2,2,3,3,4,4,5,5,6,6],"right_children":[2,4,6,8,10,12,14,-1,-1,-1,-1,-1,-1,-1,-1],"split_conditions":[1E0,4.4444443E1,4.8E1,7E0,1E0,1E0,4E1,8.187757E-2,-1.3922202E-2,3.8995352E-3,6.787907E-2,9.3777075E-2,-1.8667515E-2,4.4685207E-2,-5.255374E-2],"split_indices":[31,20,39,39,14,1,20,0,0,0,0,0,0,0,0],"split_type":[0,0,0,0,0,0,0,0,0,0,0,0,0,0,0],"sum_hessian":[2.5066953E2,2.28618E2,2.2051525E1,1.3329338E2,9.532461E1,6.0636396E0,1.59878845E1,2.4923031E0,1.3080109E2,8.8906334E1,6.4182696E0,4.982081E0,1.0815587E0,9.61715E0,6.370734E0],"tree_param":{"num_deleted":"0","num_feature":"44","num_nodes":"15","size_leaf_vector":"1"}},{"base_weights":[-2.2896673E-3,-5.610966E-1,1.0717976E-2,-2.3130053E-1,-7.3458016E-2,-2.2937756E-2,3.699673E-1,-3.1731382E-2,-1.3853997E-3,-3.4975976E-4,-8.168861E-2,5.3902935E-2,-2.5684321E-2],"categories":[],"categories_nodes":[],"categories_segments":[],"categories_sizes":[],"default_left":[0,0,0,0,0,0,0,0,0,0,0,0,0],"id":55,"left_children":[1,3,5,7,-1,9,11,-1,-1,-1,-1,-1,-1],"loss_changes":[1.8281202E0,1.5742123E-1,2.982281E0,5.9787914E-2,0E0,3.4826906E0,2.3772264E0,0E0,0E0,0E0,0E0,0E0,0E0],"parents":[2147483647,0,0,1,1,2,2,3,3,5,5,6,6],"right_children":[2,4,6,8,-1,10,12,-1,-1,-1,-1,-1,-1],"split_conditions":[2E0,6E1,9.3333336E1,1E0,-7.3458016E-2,9E1,1E0,-3.1731382E-2,-1.3853997E-3,-3.4975976E-4,-8.168861E-2,5.3902935E-2,-2.5684321E-2],"split_indices":[34,39,20,37,0,20,2,0,0,0,0,0,0],"split_type":[0,0,0,0,0,0,0,0,0,0,0,0,0],"sum_hessian":[2.4967632E2,4.721131E0,2.4495518E2,2.431695E0,2.2894356E0,2.2482861E2,2.0126577E1,1.4133545E0,1.0183403E0,2.2043556E2,4.393051E0,1.5961514E1,4.1650624E0],"tree_param":{"num_deleted":"0","num_feature":"44","num_nodes":"13","size_leaf_vector":"1"}},{"base_weights":[-2.7667016E-3,7.22431E-3,-7.204231E-2,3.5288606E-2,-2.3316824E-1,-6.423908E-4,2.483423E-2,-4.8739325E-2,7.411352E-3],"categories":[],"categories_nodes":[],"categories_segments":[],"categories_sizes":[],"default_left":[0,0,0,0,0,0,0,0,0],"id":56,"left_children":[1,3,-1,5,7,-1,-1,-1,-1],"loss_changes":[1.8009975E0,1.681391E0,0E0,1.982941E0,2.0717301E0,0E0,0E0,0E0,0E0],"parents":[2147483647,0,0,1,1,3,3,4,4],"right_children":[2,4,-1,6,8,-1,-1,-1,-1],"split_conditions":[1.03E2,1E0,-7.204231E-2,1E0,1E0,-6.423908E-4,2.483423E-2,-4.8739325E-2,7.411352E-3],"split_indices":[39,13,0,42,41,0,0,0,0],"split_type":[0,0,0,0,0,0,0,0,0],"sum_hessian":[2.4945532E2,2.470065E2,2.4488223E0,2.2194862E2,2.505788E1,1.8642035E2,3.552828E1,1.3392035E1,1.1665845E1],"tree_param":{"num_deleted":"0","num_feature":"44","num_nodes":"9","size_leaf_vector":"1"}},{"base_weights":[-2.934143E-3,1.16735026E-1,-5.870683E-2,2.1623324E-1,-2.4762931E-1,-1.6687013E-1,1.3901107E-1,1.2864478E-2,1.5438902E-1,4.789986E-2,-5.5551182E-2,-3.9884683E-2,9.105315E-5,3.126956E-2,-2.7113527E-2],"categories":[],"categories_nodes":[],"categories_segments":[],"categories_sizes":[],"default_left":[0,0,0,0,0,0,0,0,0,0,0,0,0,0,0],"id":57,"left_children":[1,3,5,7,9,11,13,-1,-1,-1,-1,-1,-1,-1,-1],"loss_changes":[1.6769222E0,2.94951E0,3.6875331E0,7.16008E0,4.2036085E0,4.328762E0,4.439795E0,0E0,0E0,0E0,0E0,0E0,0E0,0E0,0E0],"parents":[2147483647,0,0,1,1,2,2,3,3,4,4,5,5,6,6],"right_children":[2,4,6,8,10,12,14,-1,-1,-1,-1,-1,-1,-1,-1],"split_conditions":[1E0,6.875E1,1E0,6.25E1,5.1E1,3E0,1E0,1.2864478E-2,1.5438902E-1,4.789986E-2,-5.5551182E-2,-3.9884683E-2,9.105315E-5,3.126956E-2,-2.7113527E-2],"split_indices":[7,20,11,20,39,35,2,0,0,0,0,0,0,0,0],"split_type":[0,0,0,0,0,0,0,0,0,0,0,0,0,0,0],"sum_hessian":[2.4922495E2,7.888074E1,1.7034421E2,6.2280212E1,1.6600525E1,1.10209274E2,6.0134926E1,5.9454746E1,2.8254645E0,4.775104E0,1.182542E1,4.5677505E1,6.453178E1,4.241223E1,1.7722692E1],"tree_param":{"num_deleted":"0","num_feature":"44","num_nodes":"15","size_leaf_vector":"1"}},{"base_weights":[-2.4014255E-3,6.9003818E-3,-7.0401475E-2,-5.365095E-1,1.889993E-2,-2.3350598E-2,-6.999984E-2,-1.1735715E-3,3.4452062E-2],"categories":[],"categories_nodes":[],"categories_segments":[],"categories_sizes":[],"default_left":[0,0,0,0,0,0,0,0,0],"id":58,"left_children":[1,3,-1,5,7,-1,-1,-1,-1],"loss_changes":[1.632986E0,1.6220438E0,0E0,1.02797985E-1,2.4263608E0,0E0,0E0,0E0,0E0],"parents":[2147483647,0,0,1,1,3,3,4,4],"right_children":[2,4,-1,6,8,-1,-1,-1,-1],"split_conditions":[1.03E2,2E0,-7.0401475E-2,6E1,9.3333336E1,-2.3350598E-2,-6.999984E-2,-1.1735715E-3,3.4452062E-2],"split_indices":[39,34,0,39,20,0,0,0,0],"split_type":[0,0,0,0,0,0,0,0,0],"sum_hessian":[2.4847289E2,2.4619902E2,2.2738779E0,4.374731E0,2.4182428E2,2.3842077E0,1.9905235E0,2.219101E2,1.9914194E1],"tree_param":{"num_deleted":"0","num_feature":"44","num_nodes":"9","size_leaf_vector":"1"}},{"base_weights":[-2.7376187E-3,-1.04062315E-2,7.956008E-2,1.08483225E-1,-6.627031E-2,2.2060946E-2,-1.9156232E-2,-1.7255751E-2,1.2349747E-2],"categories":[],"categories_nodes":[],"categories_segments":[],"categories_sizes":[],"default_left":[0,0,0,0,0,0,0,0,0],"id":59,"left_children":[1,3,-1,5,7,-1,-1,-1,-1],"loss_changes":[1.534027E0,1.6532135E0,0E0,2.7204127E0,3.4346318E0,0E0,0E0,0E0,0E0],"parents":[2147483647,0,0,1,1,3,3,4,4],"right_children":[2,4,-1,6,8,-1,-1,-1,-1],"split_conditions":[1E0,1E0,7.956008E-2,7E0,1E0,2.2060946E-2,-1.9156232E-2,-1.7255751E-2,1.2349747E-2],"split_indices":[12,7,0,35,11,0,0,0,0],"split_type":[0,0,0,0,0,0,0,0,0],"sum_hessian":[2.4821771E2,2.4683366E2,1.3840493E0,7.860509E1,1.6822859E2,5.741427E1,2.1190813E1,1.07890686E2,6.03379E1],"tree_param":{"num_deleted":"0","num_feature":"44","num_nodes":"9","size_leaf_vector":"1"}},{"base_weights":[-2.2370503E-3,-5.278038E-1,9.194223E-3,-2.274737E-2,-6.921198E-2,-1.8974163E-2,3.076825E-1,-1.1089478E-4,-7.74524E-2,1.6143506E-2,1.0707276E-1],"categories":[],"categories_nodes":[],"categories_segments":[],"categories_sizes":[],"default_left":[0,0,0,0,0,0,0,0,0,0,0],"id":60,"left_children":[1,3,5,-1,-1,7,9,-1,-1,-1,-1],"loss_changes":[1.5009629E0,1.0500848E-1,2.0633078E0,0E0,0E0,3.030078E0,2.188424E0,0E0,0E0,0E0,0E0],"parents":[2147483647,0,0,1,1,2,2,5,5,6,6],"right_children":[2,4,6,-1,-1,8,10,-1,-1,-1,-1],"split_conditions":[2E0,6E1,9.3333336E1,-2.274737E-2,-6.921198E-2,9E1,1E0,-1.1089478E-4,-7.74524E-2,1.6143506E-2,1.0707276E-1],"split_indices":[34,39,20,0,0,20,36,0,0,0,0],"split_type":[0,0,0,0,0,0,0,0,0,0,0],"sum_hessian":[2.4802394E2,4.3181853E0,2.4370575E2,2.37027E0,1.9479151E0,2.235461E2,2.0159647E1,2.1936072E2,4.185386E0,1.793394E1,2.2257054E0],"tree_param":{"num_deleted":"0","num_feature":"44","num_nodes":"11","size_leaf_vector":"1"}},{"base_weights":[-2.2472872E-3,6.412053E-3,-6.8754435E-2,2.9904474E-2,-2.4409325E-1,-6.3985027E-3,1.2586749E-2,-3.825124E-2,7.1074985E-2],"categories":[],"categories_nodes":[],"categories_segments":[],"categories_sizes":[],"default_left":[0,0,0,0,0,0,0,0,0],"id":61,"left_children":[1,3,-1,5,7,-1,-1,-1,-1],"loss_changes":[1.481267E0,1.4594572E0,0E0,2.0487177E0,3.0825582E0,0E0,0E0,0E0,0E0],"parents":[2147483647,0,0,1,1,3,3,4,4],"right_children":[2,4,-1,6,8,-1,-1,-1,-1],"split_conditions":[1.03E2,1E0,-6.8754435E-2,3.4782608E1,2.7E1,-6.3985027E-3,1.2586749E-2,-3.825124E-2,7.1074985E-2],"split_indices":[39,32,0,20,34,0,0,0,0],"split_type":[0,0,0,0,0,0,0,0,0],"sum_hessian":[2.4787149E2,2.4575677E2,2.1147132E0,2.2549084E2,2.0265936E1,1.14145226E2,1.1134562E2,1.822355E1,2.0423853E0],"tree_param":{"num_deleted":"0","num_feature":"44","num_nodes":"9","size_leaf_vector":"1"}},{"base_weights":[-2.2207415E-3,9.6989445E-2,-6.2187493E-2,2.7811622E-2,5.293017E-1,-3.921905E-2,-9.264449E-2,-5.5985744E-3,5.696994E-2,1.185611E-3,6.890696E-2,-1.0887063E-2,1.055551E-2],"categories":[],"categories_nodes":[],"categories_segments":[],"categories_sizes":[],"default_left":[0,0,0,0,0,0,0,0,0,0,0,0,0],"id":62,"left_children":[1,3,5,7,9,11,-1,-1,-1,-1,-1,-1,-1],"loss_changes":[1.484799E0,2.7974143E0,3.0510356E0,3.7606595E0,1.0595803E0,1.5497456E0,0E0,0E0,0E0,0E0,0E0,0E0,0E0],"parents":[2147483647,0,0,1,1,2,2,3,3,4,4,5,5],"right_children":[2,4,6,8,10,12,-1,-1,-1,-1,-1,-1,-1],"split_conditions":[5.4E1,2.4E1,3.5E1,5.2E1,4.347826E0,1E0,-9.264449E-2,-5.5985744E-3,5.696994E-2,1.185611E-3,6.890696E-2,-1.0887063E-2,1.055551E-2],"split_indices":[39,34,34,39,20,11,0,0,0,0,0,0,0],"split_type":[0,0,0,0,0,0,0,0,0,0,0,0,0],"sum_hessian":[2.475611E2,9.303114E1,1.5452995E2,8.111552E1,1.1915625E1,1.515478E2,2.9821448E0,7.10284E1,1.0087125E1,3.0645556E0,8.8510685E0,1.0248821E2,4.9059597E1],"tree_param":{"num_deleted":"0","num_feature":"44","num_nodes":"13","size_leaf_vector":"1"}},{"base_weights":[-1.9837713E-3,-2.605972E-2,2.3706377E-1,-4.9526487E-2,2.787323E-1,6.9840825E-1,3.9090548E-2,5.525103E-3,-1.314089E-2,-2.0033104E-2,4.673346E-2,8.9635186E-2,-1.8483948E-2,3.990991E-2,-5.1422533E-2],"categories":[],"categories_nodes":[],"categories_segments":[],"categories_sizes":[],"default_left":[0,0,0,0,0,0,0,0,0,0,0,0,0,0,0],"id":63,"left_children":[1,3,5,7,9,11,13,-1,-1,-1,-1,-1,-1,-1,-1],"loss_changes":[1.4347053E0,1.63313E0,2.056068E0,1.8180747E0,1.5696129E0,1.3528004E0,3.595678E0,0E0,0E0,0E0,0E0,0E0,0E0,0E0,0E0],"parents":[2147483647,0,0,1,1,2,2,3,3,4,4,5,5,6,6],"right_children":[2,4,6,8,10,12,14,-1,-1,-1,-1,-1,-1,-1,-1],"split_conditions":[1E0,1E0,4.8E1,1.3E1,1E0,1E0,4E1,5.525103E-3,-1.314089E-2,-2.0033104E-2,4.673346E-2,8.9635186E-2,-1.8483948E-2,3.990991E-2,-5.1422533E-2],"split_indices":[31,14,39,34,37,1,20,0,0,0,0,0,0,0,0],"split_type":[0,0,0,0,0,0,0,0,0,0,0,0,0,0,0],"sum_hessian":[2.4721092E2,2.2540044E2,2.181048E1,2.1006451E2,1.5335931E1,5.7900095E0,1.6020472E1,9.229201E1,1.177725E2,4.3145294E0,1.1021401E1,4.7178597E0,1.0721499E0,9.874474E0,6.1459975E0],"tree_param":{"num_deleted":"0","num_feature":"44","num_nodes":"15","size_leaf_vector":"1"}},{"base_weights":[-1.5106904E-3,-5.1140493E-1,9.36504E-3,-2.2159882E-2,-6.751616E-2,-1.5952649E-2,2.7637678E-1,7.024808E-5,-7.3764764E-2,1.4079762E-2,9.78431E-2],"categories":[],"categories_nodes":[],"categories_segments":[],"categories_sizes":[],"default_left":[0,0,0,0,0,0,0,0,0,0,0],"id":64,"left_children":[1,3,5,-1,-1,7,9,-1,-1,-1,-1],"loss_changes":[1.3782885E0,9.67145E-2,1.6504233E0,0E0,0E0,2.6851268E0,1.8746507E0,0E0,0E0,0E0,0E0],"parents":[2147483647,0,0,1,1,2,2,5,5,6,6],"right_children":[2,4,6,-1,-1,8,10,-1,-1,-1,-1],"split_conditions":[2E0,6E1,9.3333336E1,-2.2159882E-2,-6.751616E-2,9E1,1E0,7.024808E-5,-7.3764764E-2,1.4079762E-2,9.78431E-2],"split_indices":[34,39,20,0,0,20,36,0,0,0,0],"split_type":[0,0,0,0,0,0,0,0,0,0,0],"sum_hessian":[2.466794E2,4.1905055E0,2.4248889E2,2.362581E0,1.8279246E0,2.2234656E2,2.0142342E1,2.1830753E2,4.03903E0,1.7888336E1,2.2540054E0],"tree_param":{"num_deleted":"0","num_feature":"44","num_nodes":"11","size_leaf_vector":"1"}},{"base_weights":[-1.6079203E-3,-8.868075E-3,7.4544966E-2,1.0187369E-1,-6.144158E-2,7.486998E-2,4.9936594E-3,-1.54095385E-2,1.004539E-2],"categories":[],"categories_nodes":[],"categories_segments":[],"categories_sizes":[],"default_left":[0,0,0,0,0,0,0,0,0],"id":65,"left_children":[1,3,-1,5,7,-1,-1,-1,-1],"loss_changes":[1.3492631E0,1.4393998E0,0E0,2.6372988E0,2.5285985E0,0E0,0E0,0E0,0E0],"parents":[2147483647,0,0,1,1,3,3,4,4],"right_children":[2,4,-1,6,8,-1,-1,-1,-1],"split_conditions":[1E0,1E0,7.4544966E-2,3.7E1,1E0,7.486998E-2,4.9936594E-3,-1.54095385E-2,1.004539E-2],"split_indices":[12,7,0,39,11,0,0,0,0],"split_type":[0,0,0,0,0,0,0,0,0],"sum_hessian":[2.4655038E2,2.45156E2,1.3943785E0,7.861733E1,1.6653868E2,4.8462667E0,7.3771065E1,1.0595064E2,6.0588043E1],"tree_param":{"num_deleted":"0","num_feature":"44","num_nodes":"9","size_leaf_vector":"1"}},{"base_weights":[-8.4164314E-4,7.24014E-3,-6.697237E-2,-4.9110004E-1,1.753823E-2,-5.8063634E-2,-1.1735681E-2,-5.743919E-4,2.6091004E-2],"categories":[],"categories_nodes":[],"categories_segments":[],"categories_sizes":[],"default_left":[0,0,0,0,0,0,0,0,0],"id":66,"left_children":[1,3,-1,5,7,-1,-1,-1,-1],"loss_changes":[1.3392029E0,1.2653348E0,0E0,9.892368E-2,1.3664306E0,0E0,0E0,0E0,0E0],"parents":[2147483647,0,0,1,1,3,3,4,4],"right_children":[2,4,-1,6,8,-1,-1,-1,-1],"split_conditions":[1.03E2,2E0,-6.697237E-2,1E0,9.3333336E1,-5.8063634E-2,-1.1735681E-2,-5.743919E-4,2.6091004E-2],"split_indices":[39,34,0,1,20,0,0,0,0],"split_type":[0,0,0,0,0,0,0,0,0],"sum_hessian":[2.4583936E2,2.4388182E2,1.9575324E0,3.9924545E0,2.3988937E2,2.7742643E0,1.2181903E0,2.1983524E2,2.0054127E1],"tree_param":{"num_deleted":"0","num_feature":"44","num_nodes":"9","size_leaf_vector":"1"}},{"base_weights":[-1.2431869E-3,1.3225813E-1,-4.0279623E-2,4.6649333E-2,5.9467226E-1,-2.732344E-1,-1.0779682E-2,-4.605699E-2,1.578034E-2,-5.5568118E-2,8.799549E-2,-4.510421E-3,-7.589515E-2,5.438407E-4,-5.9141852E-2],"categories":[],"categories_nodes":[],"categories_segments":[],"categories_sizes":[],"default_left":[0,0,0,0,0,0,0,0,0,0,0,0,0,0,0],"id":67,"left_children":[1,3,5,7,9,11,13,-1,-1,-1,-1,-1,-1,-1,-1],"loss_changes":[1.2908697E0,2.190859E0,1.3139935E0,2.7999988E0,3.3341732E0,2.3479605E0,1.6147736E0,0E0,0E0,0E0,0E0,0E0,0E0,0E0,0E0],"parents":[2147483647,0,0,1,1,2,2,3,3,4,4,5,5,6,6],"right_children":[2,4,6,8,10,12,14,-1,-1,-1,-1,-1,-1,-1,-1],"split_conditions":[4.7E1,1E0,8.333333E0,1.3E1,9E0,7.142857E0,1.01E2,-4.605699E-2,1.578034E-2,-5.5568118E-2,8.799549E-2,-4.510421E-3,-7.589515E-2,5.438407E-4,-5.9141852E-2],"split_indices":[39,42,20,39,34,20,39,0,0,0,0,0,0,0,0],"split_type":[0,0,0,0,0,0,0,0,0,0,0,0,0,0,0],"sum_hessian":[2.4567816E2,5.5044056E1,1.906341E2,4.737432E1,7.669738E0,2.0498623E1,1.7013548E2,7.9505906E0,3.942373E1,1.3357458E0,6.333992E0,1.4691311E1,5.8073115E0,1.6647618E2,3.659289E0],"tree_param":{"num_deleted":"0","num_feature":"44","num_nodes":"15","size_leaf_vector":"1"}},{"base_weights":[-1.7187645E-3,5.1906544E-1,-1.2369291E-2,9.680249E-2,-9.172219E-3,-9.036185E-1,9.343811E-3,-1.1965408E-1,1.9613832E-2,3.3523407E-2,-2.9408028E-3],"categories":[],"categories_nodes":[],"categories_segments":[],"categories_sizes":[],"default_left":[0,0,0,0,0,0,0,0,0,0,0],"id":68,"left_children":[1,3,5,-1,-1,7,9,-1,-1,-1,-1],"loss_changes":[1.3698184E0,1.4460377E0,4.6888123E0,0E0,0E0,2.0909915E0,3.0040932E0,0E0,0E0,0E0,0E0],"parents":[2147483647,0,0,1,1,2,2,5,5,6,6],"right_children":[2,4,6,-1,-1,8,10,-1,-1,-1,-1],"split_conditions":[7E0,3.25E1,1.3E1,9.680249E-2,-9.172219E-3,6E0,3.7E1,-1.1965408E-1,1.9613832E-2,3.3523407E-2,-2.9408028E-3],"split_indices":[39,20,39,0,0,35,39,0,0,0,0],"split_type":[0,0,0,0,0,0,0,0,0,0,0],"sum_hessian":[2.4480673E2,3.9495075E0,2.4085722E2,1.9392111E0,2.0102963E0,4.7623563E0,2.3609486E2,3.6911948E0,1.0711615E0,2.4277582E1,2.1181728E2],"tree_param":{"num_deleted":"0","num_feature":"44","num_nodes":"11","size_leaf_vector":"1"}},{"base_weights":[-1.4691963E-3,4.8857626E-1,-1.1453047E-2,9.166527E-2,-8.546977E-3,-8.428932E-1,8.578018E-3,-1.1190255E-1,1.872536E-2,3.0640924E-2,-2.653107E-3],"categories":[],"categories_nodes":[],"categories_segments":[],"categories_sizes":[],"default_left":[0,0,0,0,0,0,0,0,0,0,0],"id":69,"left_children":[1,3,5,-1,-1,7,9,-1,-1,-1,-1],"loss_changes":[1.2045085E0,1.2863051E0,4.023219E0,0E0,0E0,1.8260508E0,2.480595E0,0E0,0E0,0E0,0E0],"parents":[2147483647,0,0,1,1,2,2,5,5,6,6],"right_children":[2,4,6,-1,-1,8,10,-1,-1,-1,-1],"split_conditions":[7E0,3.25E1,1.3E1,9.166527E-2,-8.546977E-3,6E0,3.7E1,-1.1190255E-1,1.872536E-2,3.0640924E-2,-2.653107E-3],"split_indices":[39,20,39,0,0,35,39,0,0,0,0],"split_type":[0,0,0,0,0,0,0,0,0,0,0],"sum_hessian":[2.4404912E2,3.915686E0,2.4013344E2,1.9011421E0,2.0145438E0,4.682797E0,2.3545064E2,3.6248682E0,1.0579287E0,2.4013784E1,2.1143686E2],"tree_param":{"num_deleted":"0","num_feature":"44","num_nodes":"11","size_leaf_vector":"1"}},{"base_weights":[-1.2487116E-3,2.0349275E-2,-2.3291036E-1,5.792816E-2,-1.7251082E-1,-4.636468E-1,3.1541094E-1,2.0094968E-3,5.5071253E-2,-4.892308E-2,4.0323995E-3,-6.6167705E-2,3.7585787E-2,8.3166614E-2,-1.20195085E-2],"categories":[],"categories_nodes":[],"categories_segments":[],"categories_sizes":[],"default_left":[0,0,0,0,0,0,0,0,0,0,0,0,0,0,0],"id":70,"left_children":[1,3,5,7,9,11,13,-1,-1,-1,-1,-1,-1,-1,-1],"loss_changes":[1.2272834E0,1.6364957E0,2.7927094E0,3.5046377E0,2.5037036E0,2.7635772E0,1.6270217E0,0E0,0E0,0E0,0E0,0E0,0E0,0E0,0E0],"parents":[2147483647,0,0,1,1,2,2,3,3,4,4,5,5,6,6],"right_children":[2,4,6,8,10,12,14,-1,-1,-1,-1,-1,-1,-1,-1],"split_conditions":[1E0,8.3E1,2.1E1,7.9E1,2.631579E1,8.2E1,2.1052631E1,2.0094968E-3,5.5071253E-2,-4.892308E-2,4.0323995E-3,-6.6167705E-2,3.7585787E-2,8.3166614E-2,-1.20195085E-2],"split_indices":[32,39,34,39,20,39,20,0,0,0,0,0,0,0,0],"split_type":[0,0,0,0,0,0,0,0,0,0,0,0,0,0,0],"sum_hessian":[2.4334135E2,2.2342357E2,1.9917786E1,1.8757426E2,3.58493E1,1.4127349E1,5.7904363E0,1.7516673E2,1.2407531E1,1.3886351E1,2.1962952E1,1.1602312E1,2.5250375E0,2.2338223E0,3.5566137E0],"tree_param":{"num_deleted":"0","num_feature":"44","num_nodes":"15","size_leaf_vector":"1"}},{"base_weights":[-1.0922E-3,-8.002066E-3,7.005837E-2,9.624887E-2,-5.7709705E-2,1.8723872E-2,-2.5325527E-2,-1.177753E-2,1.606883E-2],"categories":[],"categories_nodes":[],"categories_segments":[],"categories_sizes":[],"default_left":[0,0,0,0,0,0,0,0,0],"id":71,"left_children":[1,3,-1,5,7,-1,-1,-1,-1],"loss_changes":[1.1897895E0,1.2639925E0,0E0,2.5527463E0,2.1842706E0,0E0,0E0,0E0,0E0],"parents":[2147483647,0,0,1,1,3,3,4,4],"right_children":[2,4,-1,6,8,-1,-1,-1,-1],"split_conditions":[1E0,1E0,7.005837E-2,6.875E1,1E0,1.8723872E-2,-2.5325527E-2,-1.177753E-2,1.606883E-2],"split_indices":[12,7,0,20,4,0,0,0,0],"split_type":[0,0,0,0,0,0,0,0,0],"sum_hessian":[2.4323776E2,2.4184474E2,1.3930092E0,7.7780594E1,1.6406415E2,6.2082363E1,1.5698235E1,1.2903627E2,3.502788E1],"tree_param":{"num_deleted":"0","num_feature":"44","num_nodes":"9","size_leaf_vector":"1"}},{"base_weights":[-7.657378E-4,4.5096453E-2,-1.0294323E-1,-4.092482E-1,7.109175E-2,5.508235E-1,-1.4517479E-1,-6.7477286E-2,6.412735E-2,4.7248855E-2,2.7164265E-3,1.218442E-2,6.535341E-2,5.050818E-3,-2.6410764E-2],"categories":[],"categories_nodes":[],"categories_segments":[],"categories_sizes":[],"default_left":[0,0,0,0,0,0,0,0,0,0,0,0,0,0,0],"id":72,"left_children":[1,3,5,7,9,11,13,-1,-1,-1,-1,-1,-1,-1,-1],"loss_changes":[1.1482577E0,2.0267305E0,2.1757808E0,3.0272408E0,2.8230584E0,1.3250375E-1,1.6912022E0,0E0,0E0,0E0,0E0,0E0,0E0,0E0,0E0],"parents":[2147483647,0,0,1,1,2,2,3,3,4,4,5,5,6,6],"right_children":[2,4,6,8,10,12,14,-1,-1,-1,-1,-1,-1,-1,-1],"split_conditions":[1E0,1.6E1,1.8E1,1E0,3.7E1,1E0,1.1E1,-6.7477286E-2,6.412735E-2,4.7248855E-2,2.7164265E-3,1.218442E-2,6.535341E-2,5.050818E-3,-2.6410764E-2],"split_indices":[38,39,39,24,39,10,34,0,0,0,0,0,0,0,0],"split_type":[0,0,0,0,0,0,0,0,0,0,0,0,0,0,0],"sum_hessian":[2.4304501E2,1.6813608E2,7.490894E1,8.301399E0,1.5983467E2,3.814564E0,7.109438E1,6.9120274E0,1.3893715E0,1.4803984E1,1.4503069E2,1.1592299E0,2.655334E0,2.7092989E1,4.4001392E1],"tree_param":{"num_deleted":"0","num_feature":"44","num_nodes":"15","size_leaf_vector":"1"}},{"base_weights":[-2.6763038E-4,-2.1856284E-2,2.1315256E-1,-2.9340792E-2,6.970583E-2,3.1698546E-1,-4.6122006E-1,-9.962067E-3,6.73043E-3,1.861495E-2,1.06701314E-1,-2.3917833E-3,-6.3806534E-2],"categories":[],"categories_nodes":[],"categories_segments":[],"categories_sizes":[],"default_left":[0,0,0,0,0,0,0,0,0,0,0,0,0],"id":73,"left_children":[1,3,5,7,-1,9,11,-1,-1,-1,-1,-1,-1],"loss_changes":[1.126448E0,1.2150452E0,1.7188374E0,1.5056467E0,0E0,1.7694054E0,2.4798411E-1,0E0,0E0,0E0,0E0,0E0,0E0],"parents":[2147483647,0,0,1,1,2,2,3,3,5,5,6,6],"right_children":[2,4,6,8,-1,10,12,-1,-1,-1,-1,-1,-1],"split_conditions":[1E0,1E0,8.3E1,4.4444443E1,6.970583E-2,7.5E1,2.9166666E1,-9.962067E-3,6.73043E-3,1.861495E-2,1.06701314E-1,-2.3917833E-3,-6.3806534E-2],"split_indices":[31,12,39,20,0,39,20,0,0,0,0,0,0],"split_type":[0,0,0,0,0,0,0,0,0,0,0,0,0],"sum_hessian":[2.4247267E2,2.210135E2,2.145917E1,2.1968558E2,1.3279254E0,1.9055202E1,2.4039674E0,1.2717425E2,9.251133E1,1.72877E1,1.7675023E0,1.0191255E0,1.3848419E0],"tree_param":{"num_deleted":"0","num_feature":"44","num_nodes":"13","size_leaf_vector":"1"}},{"base_weights":[2.1061783E-4,-4.790105E-1,1.0049063E-2,-1.9692868E-2,-6.468036E-2,9.078096E-2,-5.001115E-2,6.1681485E-3,7.619673E-2,-1.2489399E-2,1.5839076E-2],"categories":[],"categories_nodes":[],"categories_segments":[],"categories_sizes":[],"default_left":[0,0,0,0,0,0,0,0,0,0,0],"id":74,"left_children":[1,3,5,-1,-1,7,9,-1,-1,-1,-1],"loss_changes":[1.1512618E0,1.0512769E-1,1.1645983E0,0E0,0E0,1.9532933E0,2.1707554E0,0E0,0E0,0E0,0E0],"parents":[2147483647,0,0,1,1,2,2,5,5,6,6],"right_children":[2,4,6,-1,-1,8,10,-1,-1,-1,-1],"split_conditions":[2E0,6E1,1.3E1,-1.9692868E-2,-6.468036E-2,1E0,5.925926E1,6.1681485E-3,7.619673E-2,-1.2489399E-2,1.5839076E-2],"split_indices":[34,39,34,0,0,36,20,0,0,0,0],"split_type":[0,0,0,0,0,0,0,0,0,0,0],"sum_hessian":[2.4215993E2,3.9122128E0,2.3824773E2,2.269885E0,1.642328E0,1.014154E2,1.3683232E2,9.824774E1,3.1676595E0,1.0095716E2,3.587516E1],"tree_param":{"num_deleted":"0","num_feature":"44","num_nodes":"11","size_leaf_vector":"1"}},{"base_weights":[1.4963801E-4,4.6804357E-1,-9.45661E-3,8.621583E-2,-7.0089824E-3,-7.5990695E-1,8.321948E-3,-1.0155473E-1,1.737984E-2,2.6581794E-2,-2.1505614E-3],"categories":[],"categories_nodes":[],"categories_segments":[],"categories_sizes":[],"default_left":[0,0,0,0,0,0,0,0,0,0,0],"id":75,"left_children":[1,3,5,-1,-1,7,9,-1,-1,-1,-1],"loss_changes":[1.0961158E0,1.1009417E0,3.194743E0,0E0,0E0,1.4991713E0,1.8062981E0,0E0,0E0,0E0,0E0],"parents":[2147483647,0,0,1,1,2,2,5,5,6,6],"right_children":[2,4,6,-1,-1,8,10,-1,-1,-1,-1],"split_conditions":[7E0,3.25E1,1.3E1,8.621583E-2,-7.0089824E-3,6E0,3.7E1,-1.0155473E-1,1.737984E-2,2.6581794E-2,-2.1505614E-3],"split_indices":[39,20,39,0,0,35,39,0,0,0,0],"split_type":[0,0,0,0,0,0,0,0,0,0,0],"sum_hessian":[2.4188353E2,3.906084E0,2.3797745E2,1.9071847E0,1.9988993E0,4.5413127E0,2.3343613E2,3.496381E0,1.0449314E0,2.3412075E1,2.1002405E2],"tree_param":{"num_deleted":"0","num_feature":"44","num_nodes":"11","size_leaf_vector":"1"}},{"base_weights":[2.1533531E-4,7.2664646E-3,-6.33227E-2,2.9381128E-2,-1.8862127E-1,-4.947844E-4,2.028051E-2,6.6373184E-2,-2.8341874E-2],"categories":[],"categories_nodes":[],"categories_segments":[],"categories_sizes":[],"default_left":[0,0,0,0,0,0,0,0,0],"id":76,"left_children":[1,3,-1,5,7,-1,-1,-1,-1],"loss_changes":[1.0866917E0,1.0477779E0,0E0,1.2932016E0,2.1710358E0,0E0,0E0,0E0,0E0],"parents":[2147483647,0,0,1,1,3,3,4,4],"right_children":[2,4,-1,6,8,-1,-1,-1,-1],"split_conditions":[1.03E2,1E0,-6.33227E-2,1E0,6.6666665E0,-4.947844E-4,2.028051E-2,6.6373184E-2,-2.8341874E-2],"split_indices":[39,13,0,42,20,0,0,0,0],"split_type":[0,0,0,0,0,0,0,0,0],"sum_hessian":[2.4126898E2,2.3959052E2,1.6784606E0,2.1604968E2,2.354083E1,1.811607E2,3.4888977E1,1.7554519E0,2.1785378E1],"tree_param":{"num_deleted":"0","num_feature":"44","num_nodes":"9","size_leaf_vector":"1"}},{"base_weights":[1.11356385E-4,-4.5719016E-1,9.31051E-3,-1.8319882E-2,-6.28839E-2,1.0627178E-1,-3.684949E-2,2.2591526E-2,-2.0457197E-2,-8.276135E-3,2.307816E-2],"categories":[],"categories_nodes":[],"categories_segments":[],"categories_sizes":[],"default_left":[0,0,0,0,0,0,0,0,0,0,0],"id":77,"left_children":[1,3,5,-1,-1,7,9,-1,-1,-1,-1],"loss_changes":[1.0228356E0,1.1028826E-1,1.0706304E0,0E0,0E0,2.9145453E0,2.0122142E0,0E0,0E0,0E0,0E0],"parents":[2147483647,0,0,1,1,2,2,5,5,6,6],"right_children":[2,4,6,-1,-1,8,10,-1,-1,-1,-1],"split_conditions":[2E0,6E1,1E0,-1.8319882E-2,-6.28839E-2,7E0,8.3333336E1,2.2591526E-2,-2.0457197E-2,-8.276135E-3,2.307816E-2],"split_indices":[34,39,7,0,0,35,20,0,0,0,0],"split_type":[0,0,0,0,0,0,0,0,0,0,0],"sum_hessian":[2.411275E2,3.7945883E0,2.3733292E2,2.2578397E0,1.5367485E0,7.612548E1,1.6120744E2,5.5165535E1,2.0959946E1,1.3819157E2,2.3015867E1],"tree_param":{"num_deleted":"0","num_feature":"44","num_nodes":"11","size_leaf_vector":"1"}},{"base_weights":[-2.3283483E-4,6.383805E-3,-6.1785746E-2,2.546319E-2,-2.010145E-1,9.613691E-3,-5.7703713E-3,-3.2977123E-2,6.140953E-2],"categories":[],"categories_nodes":[],"categories_segments":[],"categories_sizes":[],"default_left":[0,0,0,0,0,0,0,0,0],"id":78,"left_children":[1,3,-1,5,7,-1,-1,-1,-1],"loss_changes":[9.931842E-1,9.567577E-1,0E0,1.3052313E0,2.3406262E0,0E0,0E0,0E0,0E0],"parents":[2147483647,0,0,1,1,3,3,4,4],"right_children":[2,4,-1,6,8,-1,-1,-1,-1],"split_conditions":[1.03E2,1E0,-6.1785746E-2,6.2E1,2.7E1,9.613691E-3,-5.7703713E-3,-3.2977123E-2,6.140953E-2],"split_indices":[39,32,0,39,34,0,0,0,0],"split_type":[0,0,0,0,0,0,0,0,0],"sum_hessian":[2.4106921E2,2.3949316E2,1.5760369E0,2.2012064E2,1.9372536E1,1.1891386E2,1.0120678E2,1.7244051E1,2.1284847E0],"tree_param":{"num_deleted":"0","num_feature":"44","num_nodes":"9","size_leaf_vector":"1"}},{"base_weights":[-3.8278277E-4,4.403417E-1,-9.366331E-3,-2.1102488E-2,7.13855E-1,-7.172798E-1,7.126705E-3,9.068308E-2,2.4507653E-2,-9.584092E-2,1.6107984E-2,2.4185346E-2,-1.981283E-3],"categories":[],"categories_nodes":[],"categories_segments":[],"categories_sizes":[],"default_left":[0,0,0,0,0,0,0,0,0,0,0,0,0],"id":79,"left_children":[1,3,5,-1,7,9,11,-1,-1,-1,-1,-1,-1],"loss_changes":[9.60598E-1,1.0141156E0,2.7807813E0,0E0,1.071825E-1,1.3028421E0,1.4801061E0,0E0,0E0,0E0,0E0,0E0,0E0],"parents":[2147483647,0,0,1,1,2,2,4,4,5,5,6,6],"right_children":[2,4,6,-1,8,10,12,-1,-1,-1,-1,-1,-1],"split_conditions":[7E0,4E0,1.3E1,-2.1102488E-2,3.25E1,6E0,3.7E1,9.068308E-2,2.4507653E-2,-9.584092E-2,1.6107984E-2,2.4185346E-2,-1.981283E-3],"split_indices":[39,39,39,0,20,35,39,0,0,0,0,0,0],"split_type":[0,0,0,0,0,0,0,0,0,0,0,0,0],"sum_hessian":[2.4057834E2,3.8466928E0,2.3673164E2,1.2051405E0,2.6415524E0,4.422429E0,2.323092E2,1.2092868E0,1.4322656E0,3.3983662E0,1.0240631E0,2.3095783E1,2.0921342E2],"tree_param":{"num_deleted":"0","num_feature":"44","num_nodes":"13","size_leaf_vector":"1"}},{"base_weights":[-1.9461144E-4,-4.4057676E-1,8.495649E-3,-1.7747495E-2,-6.1042465E-2,-1.187088E-2,2.0658928E-1,-7.2753625E-3,7.349537E-3,-1.8807907E-2,3.7374407E-2],"categories":[],"categories_nodes":[],"categories_segments":[],"categories_sizes":[],"default_left":[0,0,0,0,0,0,0,0,0,0,0],"id":80,"left_children":[1,3,5,-1,-1,7,9,-1,-1,-1,-1],"loss_changes":[9.26042E-1,1.0091591E-1,9.5988727E-1,0E0,0E0,1.1286701E0,1.5334232E0,0E0,0E0,0E0,0E0],"parents":[2147483647,0,0,1,1,2,2,5,5,6,6],"right_children":[2,4,6,-1,-1,8,10,-1,-1,-1,-1],"split_conditions":[2E0,6E1,1E0,-1.7747495E-2,-6.1042465E-2,4.4444443E1,1.5625E1,-7.2753625E-3,7.349537E-3,-1.8807907E-2,3.7374407E-2],"split_indices":[34,39,31,0,0,20,20,0,0,0,0],"split_type":[0,0,0,0,0,0,0,0,0,0,0],"sum_hessian":[2.3999565E2,3.6825647E0,2.3631308E2,2.2469091E0,1.4356556E0,2.151346E2,2.117848E1,1.2566136E2,8.9473236E1,6.263822E0,1.4914659E1],"tree_param":{"num_deleted":"0","num_feature":"44","num_nodes":"11","size_leaf_vector":"1"}},{"base_weights":[-4.6306336E-4,5.764377E-3,-6.018426E-2,-3.3663234E-4,6.053374E-2,8.953566E-3,-4.4175806E-3],"categories":[],"categories_nodes":[],"categories_segments":[],"categories_sizes":[],"default_left":[0,0,0,0,0,0,0],"id":81,"left_children":[1,3,-1,5,-1,-1,-1],"loss_changes":[9.051009E-1,8.754739E-1,0E0,9.4112504E-1,0E0,0E0,0E0],"parents":[2147483647,0,0,1,1,3,3],"right_children":[2,4,-1,6,-1,-1,-1],"split_conditions":[1.03E2,1E0,-6.018426E-2,1E0,6.053374E-2,8.953566E-3,-4.4175806E-3],"split_indices":[39,12,0,7,0,0,0],"split_type":[0,0,0,0,0,0,0],"sum_hessian":[2.3975256E2,2.3827557E2,1.4769903E0,2.3686478E2,1.4108005E0,7.731767E1,1.595471E2],"tree_param":{"num_deleted":"0","num_feature":"44","num_nodes":"7","size_leaf_vector":"1"}},{"base_weights":[-4.192607E-4,4.2141107E-1,-8.946119E-3,7.952709E-2,-7.5214365E-3,-6.7460984E-1,6.257688E-3,-9.026277E-2,1.5053152E-2,2.2420643E-2,-1.8586278E-3],"categories":[],"categories_nodes":[],"categories_segments":[],"categories_sizes":[],"default_left":[0,0,0,0,0,0,0,0,0,0,0],"id":82,"left_children":[1,3,5,-1,-1,7,9,-1,-1,-1,-1],"loss_changes":[8.69545E-1,9.491496E-1,2.401911E0,0E0,0E0,1.1329458E0,1.2636929E0,0E0,0E0,0E0,0E0],"parents":[2147483647,0,0,1,1,2,2,5,5,6,6],"right_children":[2,4,6,-1,-1,8,10,-1,-1,-1,-1],"split_conditions":[7E0,3.25E1,1.3E1,7.952709E-2,-7.5214365E-3,6E0,3.7E1,-9.026277E-2,1.5053152E-2,2.2420643E-2,-1.8586278E-3],"split_indices":[39,20,39,0,0,35,39,0,0,0,0],"split_type":[0,0,0,0,0,0,0,0,0,0,0],"sum_hessian":[2.3970116E2,3.7899067E0,2.3591125E2,1.819122E0,1.9707848E0,4.2994313E0,2.3161182E2,3.294993E0,1.0044386E0,2.2878754E1,2.0873306E2],"tree_param":{"num_deleted":"0","num_feature":"44","num_nodes":"11","size_leaf_vector":"1"}},{"base_weights":[-3.0851157E-4,-2.4565871E-1,1.4293607E-2,-3.371069E-1,4.197758E-2,2.9339595E-2,-3.2477006E-1,2.48825E-2,-4.2631816E-2,1.2595733E-2,-3.666243E-3,-6.579494E-2,4.2840745E-3],"categories":[],"categories_nodes":[],"categories_segments":[],"categories_sizes":[],"default_left":[0,0,0,0,0,0,0,0,0,0,0,0,0],"id":83,"left_children":[1,3,5,7,-1,9,11,-1,-1,-1,-1,-1,-1],"loss_changes":[8.639242E-1,9.6578765E-1,1.1707263E0,7.575654E-1,0E0,1.4002968E0,1.2228848E0,0E0,0E0,0E0,0E0,0E0,0E0],"parents":[2147483647,0,0,1,1,2,2,3,3,5,5,6,6],"right_children":[2,4,6,8,-1,10,12,-1,-1,-1,-1,-1,-1],"split_conditions":[3E0,9.3E1,9.8E1,3.9E1,4.197758E-2,1.3E1,1E0,2.48825E-2,-4.2631816E-2,1.2595733E-2,-3.666243E-3,-6.579494E-2,4.2840745E-3],"split_indices":[34,39,39,39,0,34,10,0,0,0,0,0,0],"split_type":[0,0,0,0,0,0,0,0,0,0,0,0,0],"sum_hessian":[2.3916219E2,1.2545446E1,2.2661673E2,1.1463469E1,1.0819787E0,2.1786253E2,8.754205E0,1.278331E0,1.0185137E1,8.8054565E1,1.2980797E2,4.177859E0,4.5763464E0],"tree_param":{"num_deleted":"0","num_feature":"44","num_nodes":"13","size_leaf_vector":"1"}},{"base_weights":[-4.7475868E-4,1.9296443E-2,-1.7734843E-1,-3.1346348E-1,3.462054E-2,6.0479965E-2,-2.6859996E-1,2.1205975E-2,-7.5038604E-2,9.578448E-2,1.5798605E-3,-6.512707E-2,1.0578112E-2],"categories":[],"categories_nodes":[],"categories_segments":[],"categories_sizes":[],"default_left":[0,0,0,0,0,0,0,0,0,0,0,0,0],"id":84,"left_children":[1,3,5,7,9,-1,11,-1,-1,-1,-1,-1,-1],"loss_changes":[8.4268373E-1,1.1161983E0,1.8916409E0,2.3731513E0,3.601413E0,0E0,3.2764428E0,0E0,0E0,0E0,0E0,0E0,0E0],"parents":[2147483647,0,0,1,1,2,2,3,3,4,4,6,6],"right_children":[2,4,6,8,10,-1,12,-1,-1,-1,-1,-1,-1],"split_conditions":[1E0,5.263158E0,6.6666665E0,4.1666665E0,5.882353E0,6.0479965E-2,3.75E1,2.1205975E-2,-7.5038604E-2,9.578448E-2,1.5798605E-3,-6.512707E-2,1.0578112E-2],"split_indices":[13,20,20,20,20,0,20,0,0,0,0,0,0],"split_type":[0,0,0,0,0,0,0,0,0,0,0,0,0],"sum_hessian":[2.3899438E2,2.1576659E2,2.3227806E1,8.642421E0,2.0712416E2,1.8388197E0,2.1388987E1,4.157046E0,4.485375E0,3.1415179E0,2.0398265E2,1.0211642E1,1.1177343E1],"tree_param":{"num_deleted":"0","num_feature":"44","num_nodes":"13","size_leaf_vector":"1"}},{"base_weights":[-3.6712442E-4,1.7236473E-2,-1.9319634E-1,-1.9065188E-2,1.6787213E-1,-4.0673643E-1,2.8377625E-1,8.661694E-3,-8.302768E-3,-2.6068239E-2,4.4833824E-2,-6.070868E-2,3.9030097E-2,7.730123E-2,-1.2936634E-2],"categories":[],"categories_nodes":[],"categories_segments":[],"categories_sizes":[],"default_left":[0,0,0,0,0,0,0,0,0,0,0,0,0,0,0],"id":85,"left_children":[1,3,5,7,9,11,13,-1,-1,-1,-1,-1,-1,-1,-1],"loss_changes":[8.1733924E-1,1.2098454E0,2.1669886E0,1.2152047E0,5.2795453E0,2.5243635E0,1.4780982E0,0E0,0E0,0E0,0E0,0E0,0E0,0E0,0E0],"parents":[2147483647,0,0,1,1,2,2,3,3,4,4,5,5,6,6],"right_children":[2,4,6,8,10,12,14,-1,-1,-1,-1,-1,-1,-1,-1],"split_conditions":[1E0,1E0,2.1E1,1E0,1E0,8.2E1,2.1052631E1,8.661694E-3,-8.302768E-3,-2.6068239E-2,4.4833824E-2,-6.070868E-2,3.9030097E-2,7.730123E-2,-1.2936634E-2],"split_indices":[32,29,34,22,22,39,20,0,0,0,0,0,0,0,0],"split_type":[0,0,0,0,0,0,0,0,0,0,0,0,0,0,0],"sum_hessian":[2.3880325E2,2.196608E2,1.914247E1,1.7770833E2,4.195246E1,1.3324403E1,5.818066E0,6.686927E1,1.1083906E2,1.6622969E1,2.5329494E1,1.083831E1,2.4860923E0,2.2649267E0,3.5531394E0],"tree_param":{"num_deleted":"0","num_feature":"44","num_nodes":"15","size_leaf_vector":"1"}},{"base_weights":[-1.8358039E-4,-4.2071718E-1,7.868604E-3,-1.6380036E-2,-5.9069414E-2,1.3618323E-2,-5.75398E-2,7.931079E-3,-3.5940576E-3],"categories":[],"categories_nodes":[],"categories_segments":[],"categories_sizes":[],"default_left":[0,0,0,0,0,0,0,0,0],"id":86,"left_children":[1,3,5,-1,-1,7,-1,-1,-1],"loss_changes":[8.1475747E-1,1.0065526E-1,7.9966563E-1,0E0,0E0,7.672244E-1,0E0,0E0,0E0],"parents":[2147483647,0,0,1,1,2,2,5,5],"right_children":[2,4,6,-1,-1,8,-1,-1,-1],"split_conditions":[2E0,6E1,1.03E2,-1.6380036E-2,-5.9069414E-2,1.3E1,-5.75398E-2,7.931079E-3,-3.5940576E-3],"split_indices":[34,39,39,0,0,34,0,0,0],"split_type":[0,0,0,0,0,0,0,0,0],"sum_hessian":[2.386325E2,3.5205274E0,2.3511198E2,2.183648E0,1.3368791E0,2.3378404E2,1.3279424E0,1.0027064E2,1.3351341E2],"tree_param":{"num_deleted":"0","num_feature":"44","num_nodes":"9","size_leaf_vector":"1"}},{"base_weights":[-7.28466E-4,2.8511906E-2,-1.1465645E-1,3.2491356E-1,1.2986081E-2,-4.3245766E-2,-5.205073E-1,9.00301E-2,-3.35039E-2,-4.4461984E-2,3.1623913E-3,1.4670528E-2,-2.780873E-2,-5.4681994E-4,-8.728036E-2],"categories":[],"categories_nodes":[],"categories_segments":[],"categories_sizes":[],"default_left":[0,0,0,0,0,0,0,0,0,0,0,0,0,0,0],"id":87,"left_children":[1,3,5,7,9,11,13,-1,-1,-1,-1,-1,-1,-1,-1],"loss_changes":[8.016788E-1,8.771359E-1,1.4019209E0,3.9056702E0,1.57508E0,1.9538436E0,1.3131269E0,0E0,0E0,0E0,0E0,0E0,0E0,0E0,0E0],"parents":[2147483647,0,0,1,1,2,2,3,3,4,4,5,5,6,6],"right_children":[2,4,6,8,10,12,14,-1,-1,-1,-1,-1,-1,-1,-1],"split_conditions":[1E0,6.25E0,1E0,2.1E1,8.333333E0,6.1E1,1E0,9.00301E-2,-3.35039E-2,-4.4461984E-2,3.1623913E-3,1.4670528E-2,-2.780873E-2,-5.4681994E-4,-8.728036E-2],"split_indices":[0,20,13,34,20,39,7,0,0,0,0,0,0,0,0],"split_type":[0,0,0,0,0,0,0,0,0,0,0,0,0,0,0],"sum_hessian":[2.3866934E2,1.9052068E2,4.814866E1,8.491086E0,1.820296E2,4.188536E1,6.2633E0,4.3416114E0,4.1494746E0,6.229278E0,1.7580032E2,2.3363304E1,1.8522055E1,2.9565291E0,3.306771E0],"tree_param":{"num_deleted":"0","num_feature":"44","num_nodes":"15","size_leaf_vector":"1"}},{"base_weights":[-1.1566144E-3,-6.8861833E-3,5.6259777E-2,-2.5528092E-2,1.7352177E-1,-3.9131083E-3,2.7976418E-2,3.891393E-2,-2.0206327E-2],"categories":[],"categories_nodes":[],"categories_segments":[],"categories_sizes":[],"default_left":[0,0,0,0,0,0,0,0,0],"id":88,"left_children":[1,3,-1,5,7,-1,-1,-1,-1],"loss_changes":[7.7697164E-1,8.0460286E-1,0E0,9.1010153E-1,1.8935248E0,0E0,0E0,0E0,0E0],"parents":[2147483647,0,0,1,1,3,3,4,4],"right_children":[2,4,-1,6,8,-1,-1,-1,-1],"split_conditions":[1E0,1E0,5.6259777E-2,1E0,4.117647E1,-3.9131083E-3,2.7976418E-2,3.891393E-2,-2.0206327E-2],"split_indices":[12,31,0,36,20,0,0,0,0],"split_type":[0,0,0,0,0,0,0,0,0],"sum_hessian":[2.3834395E2,2.3692381E2,1.4201279E0,2.1551294E2,2.1410875E1,2.0715453E2,8.3584175E0,1.3579186E1,7.831689E0],"tree_param":{"num_deleted":"0","num_feature":"44","num_nodes":"9","size_leaf_vector":"1"}},{"base_weights":[-6.571593E-4,3.9825115E-1,-8.716772E-3,-2.1794992E-2,6.666041E-1,-6.507056E-1,5.7128444E-3,8.440465E-2,2.3241881E-2,-9.279846E-2,2.726156E-3,5.6779023E-2,-3.0230868E-4],"categories":[],"categories_nodes":[],"categories_segments":[],"categories_sizes":[],"default_left":[0,0,0,0,0,0,0,0,0,0,0,0,0],"id":89,"left_children":[1,3,5,-1,7,9,11,-1,-1,-1,-1,-1,-1],"loss_changes":[7.7251816E-1,9.321646E-1,2.1847866E0,0E0,7.820392E-2,9.99876E-1,1.1372627E0,0E0,0E0,0E0,0E0,0E0,0E0],"parents":[2147483647,0,0,1,1,2,2,4,4,5,5,6,6],"right_children":[2,4,6,-1,8,10,12,-1,-1,-1,-1,-1,-1],"split_conditions":[7E0,4E0,1.3E1,-2.1794992E-2,3.25E1,1E0,1.5E1,8.440465E-2,2.3241881E-2,-9.279846E-2,2.726156E-3,5.6779023E-2,-3.0230868E-4],"split_indices":[39,39,39,0,20,11,39,0,0,0,0,0,0],"split_type":[0,0,0,0,0,0,0,0,0,0,0,0,0],"sum_hessian":[2.3820236E2,3.7585945E0,2.3444376E2,1.1972508E0,2.5613434E0,4.1843095E0,2.3025945E2,1.1481439E0,1.4131997E0,2.7080004E0,1.476309E0,2.5445738E0,2.2771487E2],"tree_param":{"num_deleted":"0","num_feature":"44","num_nodes":"13","size_leaf_vector":"1"}},{"base_weights":[-3.7667938E-4,5.0586914E-3,-5.664022E-2,-3.9680576E-1,1.2550443E-2,-4.8724946E-2,-5.949228E-3,9.127425E-3,-2.5723113E-3],"categories":[],"categories_nodes":[],"categories_segments":[],"categories_sizes":[],"default_left":[0,0,0,0,0,0,0,0,0],"id":90,"left_children":[1,3,-1,5,7,-1,-1,-1,-1],"loss_changes":[7.3821E-1,7.207159E-1,0E0,1.0468221E-1,7.084588E-1,0E0,0E0,0E0,0E0],"parents":[2147483647,0,0,1,1,3,3,4,4],"right_children":[2,4,-1,6,8,-1,-1,-1,-1],"split_conditions":[1.03E2,2E0,-5.664022E-2,1E0,1E0,-4.8724946E-2,-5.949228E-3,9.127425E-3,-2.5723113E-3],"split_indices":[39,34,0,1,7,0,0,0,0],"split_type":[0,0,0,0,0,0,0,0,0],"sum_hessian":[2.3801538E2,2.3673315E2,1.2822138E0,3.381486E0,2.3335167E2,2.3159983E0,1.0654876E0,7.588375E1,1.5746793E2],"tree_param":{"num_deleted":"0","num_feature":"44","num_nodes":"9","size_leaf_vector":"1"}},{"base_weights":[-7.994038E-4,3.8062155E-1,-8.427021E-3,-2.053589E-2,6.389254E-1,-6.117615E-1,4.9310294E-3,8.1340335E-2,2.1949468E-2,